<?xml version="1.0"?>
<opencv_storage>
<opencv_ml_svm>
  <format>3</format>
  <svmType>C_SVC</svmType>
  <kernel>
    <type>LINEAR</type></kernel>
  <C>1.</C>
  <term_criteria><epsilon>0.001</epsilon>
    <iterations>1000</iterations></term_criteria>
  <var_count>1296</var_count>
  <class_count>10</class_count>
  <class_labels type_id="opencv-matrix">
    <rows>10</rows>
    <cols>1</cols>
    <dt>i</dt>
    <data>
      0 1 2 3 4 5 6 7 8 9</data></class_labels>
  <sv_total>45</sv_total>
  <support_vectors>
    <_>
      -0.000335987686 -3.97210897e-05 0.000135387716 -0.000524567091
      -0.000350358605 -0.00020402878 -0.000152810462 1.5265543e-05
      -2.74221056e-05 0.00492199091 0.00182991254 0.00587287359
      6.75472184e-05 -0.00127318327 -0.000526299526 -0.000274961727
      -0.000349962938 0.00443559047 0.00300165638 0.00726771588
      0.0202652253 -0.000194357694 0.00422381377 -0.00035413538
      -0.000412913272 -0.000712986453 0.00283497339 -0.00506295729
      0.0116603812 0.0116603812 -0.000230006684 0.000662629085
      -0.000341091771 -6.2014311e-05 -0.000792431121 -0.00554544991
      0.00514007173 0.00267869816 0.00856429338 -0.000117817901
      -0.000169249179 -0.000119646276 6.30997092e-05 5.48537973e-05
      0.00519260298 0.0164264925 0.00506422715 0.015130817
      -0.000391868409 -0.000128809654 -8.08224431e-05 0.000367110973
      5.07090263e-05 0.0168740116 -0.00782410428 0.00972217415
      0.010360471 -0.000362346356 -0.000381223072 -4.52781615e-06
      -0.00726863788 -0.00250395341 -0.00768449018 -0.00725447852
      0.016205797 0.0195015147 -0.000336214143 -0.000514031912
      2.83623795e-05 -0.0163780786 -0.0116821518 -0.00725447852
      0.0154893268 -0.000582862413 0.00380810769 -0.00120450417
      -0.00366322719 -0.00140293117 -0.000235717249 -0.00143425236
      0.0176637843 0.0187497661 -0.00066016952 -0.000267820375
      -0.000927301415 -0.00361109129 -0.00511332462 -0.000743470388
      -0.00173276721 0.0184992682 -0.011440821 0.00164759287
      0.0108580953 -0.00089102023 -0.00558318384 -0.00133960391
      -0.0203430261 -0.0204077102 -0.0113838967 0.0208315626
      -0.0022880733 -0.00148607674 -0.00191808923 -0.00427668169
      -0.00345085515 -0.00120095839 -0.00268619764 0.0206924472
      0.0107854921 -0.00130173727 -0.00187803362 -0.00570681924
      -0.0149772773 -0.00769310631 -0.00378306629 -0.00242611975
      0.00987668708 0.0148564614 -0.000234089224 -0.000145475613
      -0.00302664842 -0.0102013778 -3.91605245e-05 0.0131867379
      0.00435784878 0.014800421 0.00456293719 -0.00502357446
      -0.006132646 -0.00459725689 -0.0166373458 -0.00439392263
      0.00983850192 0.000612674747 0.00343840709 -0.000325175468
      -0.00184807007 -0.000960115111 -0.00182837481 -0.0146941673
      0.000227779106 0.0268618427 0.016885113 -0.000455543603
      0.0104974546 0.000612251519 0.000735104142 0.00102819677
      -0.00985531043 0.000191108033 0.0148278484 0.00515853893
      0.0104210088 0.00410461612 0.000507751596 0.000793235842
      0.000624522625 0.00134036574 0.00121508189 0.00595175847
      0.00210260274 0.00501450012 -0.00187983445 0.00124403415
      0.000466525293 0.000852217781 -0.0153741138 0.000256692088
      0.0304421447 0.0278719142 -0.00182655349 -0.0139135597
      0.0013656643 0.00162348116 0.000998160336 0.00327666546
      0.000463418226 0.0211420041 0.0184449777 -0.0143307652
      0.0101962555 0.00152268994 0.00376568222 3.90298046e-05
      0.0113826329 0.00640141917 0.00403526053 0.00151524413
      0.0117828185 0.0035509381 0.000168670318 0.000464977726
      5.57568592e-06 0.0124053108 0.000397721364 0.000308167946
      0.000192912965 0.00354895601 -0.0273081698 0.00360401347
      0.00776284654 0.00118524663 0.0309342202 0.00456699869
      0.0296308678 0.0248417798 -0.027789332 -0.0147113381 0.00034731155
      0.000685539912 9.29281032e-06 0.0235715415 0.000701459765
      0.010277248 0.00359326438 -0.0147345494 -0.000708124018
      0.00644008815 0.0115644457 2.77963081e-05 0.0124004139
      0.000224753836 -1.09359667e-06 -5.18707529e-05 -0.000681301171
      -0.000960825128 0.00450238166 -0.00505066663 6.38088432e-06
      0.00908140559 0.000283984031 -0.000921666913 -0.00033357169
      -0.000915048819 -0.00256482884 -0.00575272134 -0.00505066663
      0.000264714501 0.0233785827 0.000426926184 1.78356804e-05
      -1.35071878e-05 -0.0026036771 -0.0064726281 -0.0136767393
      -0.00505066663 5.84958761e-05 0.0248975381 0.00055871025
      -0.00151648419 -0.000532287988 -0.00628137728 -0.00216553407
      0.000690068991 0.00325528928 -1.75951045e-05 -0.00154030928
      3.6554633e-05 -0.010220035 -0.00346744061 -0.00194730586
      0.00797504745 0.00518118357 0.0150452927 -8.40698995e-05
      -0.0174991712 -0.000110358611 -0.0211185701 -0.00995388348
      0.00820182543 0.00288727996 -0.000708671287 -0.00169517053
      4.6585752e-05 0.00104629365 6.21732979e-05 -0.0110778529
      -0.00513099087 0.00276917894 0.0133905075 0.0170550328
      0.0167324785 -0.000120119104 -0.0138961812 -0.000378962257
      -0.0240586009 -0.0128789432 0.0134475064 0.0194132682
      0.00194179639 0.00598817971 -0.000119283897 -0.0228445809
      -0.000170499101 -0.0159404874 -0.00575311249 0.0195788015
      0.0264053512 1.9689056e-05 0.000115573253 -0.000115878451
      -0.0036538511 5.52100792e-05 0.000457862625 6.13670782e-05
      0.0263576023 -0.00115507806 0.00646289624 0.0166725926
      -0.000245138712 -0.02957757 -0.000736408227 -0.0258673131
      -0.010686039 -0.00119772798 -0.00187071564 0.000588868861
      0.00162396953 -9.85264487e-05 -0.00605909619 -0.000348713744
      -0.00275871437 -0.00135123881 -0.00187071564 0.0213537626
      1.7874243e-05 -0.00014085928 -7.02589168e-05 -0.000452149688
      -0.000116994343 0.00823150296 0.00263503194 0.0210547559
      0.0161671154 1.30024171e-06 -7.52439519e-05 -0.00010527308
      -0.000236907828 -8.21414505e-05 0.0181233119 0.00799557287
      0.0162419155 -0.0147453751 -8.77437706e-05 -0.000277915475
      -9.18654405e-05 -0.00107880728 -0.00109178957 0.016621938
      0.00495377416 -0.0147453751 -0.0147453751 -0.000283177273
      -0.00104318059 -0.000495127926 0.00680467393 -0.000915888755
      0.0246162415 0.0210322998 -0.0147453751 0.0114269331
      -6.12328731e-05 -9.68645036e-05 7.54755973e-08 0.00022927743
      -2.37692311e-05 0.0250586905 0.00947434083 0.0114354724
      0.00950400624 1.72392156e-05 -0.000306428672 3.22514416e-06
      0.0119072786 -7.88742818e-06 0.0219332874 0.0178366266
      0.00906355772 -0.0203170497 -0.00038439504 -0.000994964386
      -1.50950427e-05 0.0219532158 -0.000260593224 0.0243765637
      0.0168466736 -0.0193718076 -0.0354847014 -0.000183179567
      -0.00113266718 8.07319157e-05 0.023927277 -0.000252164202
      0.0148210311 0.0129687171 -0.0357043594 -0.00252036052
      -0.000129122578 -0.00201023417 -0.000303555949 0.0190050602
      3.88811168e-05 0.0237571727 0.0138275595 -0.00273037888
      -0.00146744912 -0.000112929789 -0.00054924225 -3.05382418e-05
      0.00452726893 -8.54917016e-06 0.0099547673 0.00331880921
      -0.0015222748 -0.0399614759 -0.00144422031 -0.0070206942
      -0.000454253954 0.0232448056 -0.000458087219 0.012892643
      0.0171298832 -0.0401299 -0.0113609545 -0.000848327822
      -0.0029293769 7.57686357e-05 0.0101843458 -0.000305833732
      -0.00127036194 0.00356226508 -0.0112067917 -0.00046490549
      -0.0109810568 0.000671354006 0.000508702127 0.0084506413
      5.4584234e-05 -0.00213389122 -0.000876798469 -0.000667672022
      -0.00146371534 -0.00649974169 -0.00746872462 0.000230480669
      0.0243500713 0.000442458346 0.000234673978 -1.22629226e-05
      -0.00190804712 -0.00404909858 -0.0045044166 -0.00824070536
      0.000784564822 0.00132456562 -7.10575259e-05 0.0011652906
      -0.00392029295 -0.0041235555 -0.0138570257 0.00246043527
      0.00333923264 0.000331772113 0.0189175606 0.000430552405
      0.00467204442 0.000849965261 -0.0139902271 0.00437948992
      0.010180369 0.0116541069 4.50124026e-05 0.00855776202
      0.000162470984 -0.00331193465 -0.00120980642 0.004193014
      -0.00446318695 0.0111310277 0.022910893 -6.09406052e-05
      -0.0100861406 -0.00042594978 -0.016291393 -0.0111926757
      -0.00444920268 -0.0208445173 0.00484128762 0.0108394995
      0.000296028564 0.0214193705 0.000436706003 0.0182023887
      0.00724159367 -0.0210571717 -0.0200188216 0.000771757972
      0.00281056645 0.000261673587 0.0113875978 -8.9615256e-05
      0.00945322122 0.00516718021 -0.0201044548 0.00364396046
      0.00845920946 0.0174170099 -3.15680736e-05 -0.00666612387
      -1.55188554e-05 -0.0101924352 -0.00329823419 0.00366045721
      0.00217066077 0.00108430942 0.00203526998 0.000234856081
      -0.000671997783 5.97015933e-05 -0.00132188306 -0.000488060992
      0.00217066077 -0.0120574115 0.000127314415 0.000436849223
      6.66746055e-05 0.00724149169 5.62028144e-05 0.0136471316
      0.00561557151 -0.0123240892 -0.012391937 0.000310878269
      0.000106940061 0.000294358964 9.17381258e-05 9.33040501e-05
      0.00161916169 0.000816504704 -0.012391937 -0.00567087391
      0.000246780721 9.8212302e-05 0.00023410577 0.000162649725
      -4.29214779e-05 0.0109369066 0.00367695186 -0.00566019677
      -0.00378045044 0.000382048747 0.00095396745 0.000671870541
      0.0245908517 0.000191752071 0.0247067064 0.0213465281
      -0.00378045044 -0.0204476416 0.00172054069 0.00452891598
      0.000368763926 0.000278259162 -5.70897157e-07 0.000107352673
      1.60171257e-05 -0.0204466619 -0.0131405341 0.0128042409
      0.0203408059 0.000750321255 0.0245461334 0.000773332838
      0.013250228 0.00455718162 -0.0130979652 -0.0187825691
      0.000754326407 0.00223271153 0.000562653993 0.0274224859
      0.000272865698 0.026860524 0.012947252 -0.0184368826 -0.0248845592
      0.000421185046 0.00123825006 0.000447951927 0.0266973861
      0.000201074727 0.00404816354 0.00417413563 -0.0249576289
      -0.020722203 0.0114508299 0.0218845177 0.000511430553 0.0274203829
      0.000928059511 0.0134694139 0.00480910065 -0.0205653161
      -0.0255084336 0.00112670718 0.00432038959 0.00030955486
      0.0213888455 0.000579823391 0.000371410744 -0.000850570854
      -0.0254831854 -0.0155818658 -0.000284042704 -0.000947201333
      0.000318165694 0.0221061837 0.000204706143 0.000879535801
      -0.00203500199 -0.0156325232 -0.00236342475 -0.000320112449
      -0.001092038 0.000329557253 0.00893173181 0.000316182035
      0.00428510131 -0.000713460613 -0.00234652637 -0.0160806049
      -0.00611518929 -0.000278964668 0.000191416271 0.0134488391
      0.000294166734 -0.0114558283 -0.00854322407 -0.016228877
      -0.00109973189 -0.00211293204 0.00313956034 0.000395389885
      0.00361859822 0.000354071934 -0.0105750617 -0.00498413295
      -0.00113075878 -0.0145706097 -0.000318930921 -0.000503594871
      0.000268634292 0.00791243371 0.000105761595 -0.000312701275
      -0.00341651379 -0.0144594796 -0.0242081825 -0.00265437062
      -0.00773467822 7.55645306e-05 0.0214463193 0.000192127787
      0.00318619027 0.00152663444 -0.0241109133 -0.014450754
      -0.000126727522 -2.00735594e-05 0.000183431068 0.0250649806
      5.47800373e-05 0.0112373093 0.00992286392 -0.0144480933
      -0.013691593 -0.00351825636 -0.0102588804 9.16978533e-05
      0.026099408 0.000129245891 0.0178771392 0.0185914896 -0.0136465514
      -0.0208122116 -0.0044919434 -0.0117642181 0.000190770239
      0.0227596369 0.000206734621 0.022717841 0.00876291469 -0.020817779
      -0.0110712657 -0.00185671868 -0.00548292464 0.000180424438
      0.0150418123 6.82626414e-05 0.0180488508 0.0155097721
      -0.0110372575 -0.00667663105 -0.0050477162 -0.0128361359
      3.5782763e-05 0.0089778835 0.000119032913 0.0217753947
      0.0133773033 -0.00667508366 -0.00251609506 -0.00173004158
      -0.00579996919 8.84576764e-07 0.00147128955 8.70952354e-05
      0.0247209426 0.0119260652 -0.00245248294 -0.0107954675
      -3.39203652e-05 -2.46390318e-05 1.07663609e-05 0.000778860238
      -2.71934223e-05 0.0160184558 0.00549043063 -0.0108289635
      -0.00985359214 -1.70986805e-05 1.93732535e-06 6.82694736e-05
      -4.10571338e-05 6.45866112e-06 0.00146878255 0.000578442123
      -0.0099059213 0.0069565624 4.6203575e-05 1.87365877e-05
      3.38288846e-05 0.000182599659 4.41649681e-05 0.0105692931
      0.00378755829 0.0069143069 0.00215307833 1.29321697e-05
      4.3139531e-05 6.18155027e-05 7.81869239e-05 0.000181301191
      0.00126017968 0.000632621581 0.00219144416 -0.0134540787
      0.00311738485 0.00963452086 0.00011490719 1.87316346e-05
      2.87687071e-05 9.96570889e-05 2.87162475e-05 -0.0134604657
      -0.0119522121 0.0149707589 0.024698332 0.000114605798 0.0149015533
      0.00023599164 0.000382091268 0.000134525879 -0.0118983155
      0.00103801407 0.00386115327 0.0118845254 2.78645748e-05
      0.000177495822 8.10636921e-05 0.00025981426 0.00010042412
      0.0010275502 -0.00368260732 0.0158593934 0.0252677575
      7.37089722e-05 0.00560777076 8.29127894e-05 7.03823607e-05
      4.27356463e-05 -0.0038122437 -0.0186481904 0.0114893978
      0.0247082636 0.000125299892 0.0254381653 0.00049135217
      0.000239945774 9.71033878e-05 -0.0181759708 -0.0270161182
      0.00147381821 0.000743728247 0.000164371304 0.0199787281
      0.00030942919 -0.00383454794 -0.00126445189 -0.0269479509
      -0.00852358807 0.0117202476 0.024916362 7.99906848e-05
      0.0102812359 0.000168917803 4.77725007e-05 4.85845121e-05
      -0.00843563862 -0.0150882686 0.0210905019 0.018957356
      0.00012050756 0.0217086673 0.000191867686 5.66308227e-05
      0.000103864717 -0.0149797127 -0.0260369424 -0.00601259107
      0.000271191559 0.000142060002 0.0143299717 5.53874524e-05
      -0.00642316882 -0.00291758776 -0.0259521995 -0.00300249644
      -0.0044948631 -0.000176410918 0.000194104476 0.00203657732
      2.62156373e-05 -0.00263056485 -0.00095987611 -0.00302922097
      -0.0208941735 0.017913565 0.0133259073 0.000115927025 0.0258598514
      0.000291023607 0.000166416692 0.000134604998 -0.0207188167
      -0.00203424995 0.00385143026 0.00958080683 0.000105662875
      0.016373774 0.000171893451 9.11719835e-05 1.18359521e-05
      -0.00201808894 -0.028033888 -0.000366362423 -0.00044209871
      5.2381878e-05 0.0212173127 2.6455531e-05 0.0180081837
      0.00823416281 -0.0280783959 -0.0146231931 -0.00294907228
      -0.00690182112 -0.000262729765 0.0194292609 6.4160311e-05
      0.0233419072 0.0255485233 -0.0146231931 0.00259354361
      -5.45251169e-05 -0.000160036943 -7.36986185e-05 0.0016115238
      -3.28863207e-05 0.00411220593 0.00130508759 0.00289389887
      0.0206552017 -0.000735077891 -0.000973933085 -0.000322648353
      0.000413464557 0.000149800442 0.0264123306 0.0102920849
      0.0213833395 -0.0208909158 -0.00620669778 -0.010375672
      -0.00103043159 0.000465995749 2.49809473e-05 0.0232522245
      0.0126563283 -0.0209170766 -0.00573764974 -0.00198762678
      -0.00622017682 -0.000364526233 -0.000545290997 2.25785625e-05
      0.0232522245 0.0103183473 -0.0056330259 0.0175383687
      -0.000915782235 -0.00081909704 -0.00172152324 -0.000979966717
      0.000131140259 0.0227792654 0.00879086647 0.0181160476
      0.0230255071 -7.69324906e-05 -9.67396481e-05 -0.000800736656
      -0.000178741015 5.4219272e-05 0.0232522245 0.0133575946
      0.0230936743 -0.010216428 1.71432894e-05 1.88535432e-06
      2.26770658e-06 -0.000126872183 4.19228709e-05 0.00638398947
      0.00226015551 -0.0104008196 -0.0130241318 0.000329991395
      0.000988298096 3.77951119e-06 4.13950547e-05 9.87956082e-05
      0.000322020613 0.000240790236 -0.0130241318 0.0293009002
      2.13544649e-06 2.28528806e-05 0.000230246907 3.47849164e-05
      5.56387977e-06 0.0100301411 0.00338584231 0.0293009002
      0.0293009002 0.000537130807 0.00165635266 0.000138148156
      8.73427125e-05 1.32236519e-05 0.00014226904 0.000116939802
      0.0293009002 -0.00728170201 0.00269826013 0.00812365673
      3.20887125e-06 0.000145177197 2.64735754e-05 0.000139331692
      7.24472193e-05 -0.00698164385 -0.0223444868 0.012685651
      0.0250810552 1.98519119e-05 0.000453063636 5.9695416e-05
      3.6951089e-05 7.19163654e-05 -0.0222029164 0.0250810552
      0.00327243377 0.00985302869 0. 8.07260585e-05 2.90907178e-06
      4.51264204e-05 3.75145864e-05 0.0250810552 0.0236483011
      0.013085125 0.0250810552 0. 0.000209801001 8.40322173e-06
      8.86225644e-06 5.36199004e-05 0.0242141597 -0.0199027825
      0.0195169915 0.0252996422 4.54446526e-05 0.00313185737
      0.000117825795 6.97304422e-05 6.49885187e-05 -0.01961153
      -0.0111994119 0.0225833822 0.0252996422 8.14836385e-05
      0.0104057407 0.000101417812 0.00012201332 0.000126565472
      -0.0111200139 0.0195983034 0.0125471782 0.0252996422
      4.44025827e-05 0.000640471815 5.45091061e-05 5.66349554e-05
      0.000157000162 0.0205846298 0.00997866876 0.00603782991
      0.0178488586 0.000220798305 0.000900825544 7.31110922e-05
      9.41891485e-05 0.000195643937 0.0100879995 -0.0185426939
      0.0392987207 0.0392987207 0.000384588377 0.0336591639
      0.00103488518 0.00179260923 0.000771930732 -0.0182935372
      -0.0180112571 0.00548470952 0.0161700808 0.000142021338
      0.0141778886 0.00061763078 0.000953035546 0.000132312038
      -0.017898798 0.00945159327 0.00636924524 0.0165063236
      0.000966968772 0.00724376831 0.000135226466 0.000372728246
      0.000517817854 0.00921705086 0.000795328815 0.000429037143
      0.000840291497 0.000282749243 0.00499063404 5.80329797e-05
      0.000136147937 0.000155572256 0.000982476049 0.00871870201
      0.00278145098 0.00667546503 0.00306840637 0.00952566322
      0.00371965277 0.00518311141 -0.00129982154 0.00973783899
      0.0331973545 0.00374087738 0.00688437279 0.00570776919
      0.00711709447 0.00825739931 0.00474851392 0.00331310206
      0.0331973545 0.0050758468 0.000263364578 0.00105163502
      0.000838818029 0.00256682606 0.00133946061 0.000443884055
      -0.00202205149 0.00431882823 0.00533195678 0.00092853856
      0.00147315743 0.00190135615 0.00212716521 0.00169087015
      0.000539484143 0.000623738393 0.00652295025 0.0128987804
      -0.00150649913 -0.00116585393 -0.00759586785 -0.00858404767
      0.0011007078 0.0196722187 0.00690219225 0.0129972491 0.0352396406
      6.19284183e-05 -0.000250106677 -0.00372293638 0.000264615752
      0.000478464324 0.0379807688 0.0188787486 0.0353862122
      -0.00444218889 8.83540706e-05 0.000127931664 0.000133638707
      -0.00275850715 0.000143574041 2.3886023e-05 0.000114423441
      -0.00411449187 -0.000233207931 3.86597931e-05 5.26107724e-05
      0.000194209715 -0.00129601674 6.17768455e-05 2.41871271e-06
      1.63462046e-05 -0.000175938112 0.0400635526 1.57317845e-05
      0.000136163391 0.00137187087 -0.0201583635 0. 0.00832232088
      0.00276601012 0.0400635526 0.0400635526 0.000528550707
      0.0017193181 0.000823122624 0.00123966299 0. 0.000765133358
      0.000255694496 0.0400635526 0.000766646233 2.24739802e-06
      1.94519143e-05 0.000195981556 -0.00942853373 0. 0.000134325266
      4.48891515e-05 0.000766180572 0.000737215218 0. 1.1671149e-05
      0.000117588948 0.000709272281 0. 0.000269107113 8.99309161e-05
      0.000737215218 0.035169512 0.00450048083 0.0134056415 0.
      0.000914325297 0. 0.000255468942 8.53734018e-05 0.035169512
      0.035169512 0.0111223115 0.0315303616 0. 0.00169335422 0. 0.
      5.92199103e-05 0.035169512 0.000488343125 3.2865546e-06
      9.83458722e-06 0. 0.000383923179 0. 6.40947619e-05 2.14193678e-05
      0.000488343125 0.000694846152 2.54025999e-05 6.8842106e-05 0.
      0.000610644172 0. 0. 0. 0.000660657824 0.0349999331 0.0248080771
      0.0346649252 0.000392602844 0.0143499821 0.000364488136
      0.000338214653 0.00437030615 0.0349999331 0.019028496
      0.00564542552 0.00670395466 0.00370744709 0.0168666635
      0.000607480179 0.000563691021 0.00620949036 0.0227834135
      0.00277067022 7.17860748e-05 0.000198291411 2.86161394e-05
      0.00431676954 0. 2.28603985e-05 0.00186811481 0.00456518913
      0.00563275255 0.000451465312 0.000199509945 0.00046756689
      0.0069734538 0. 3.81006648e-05 0.00311352452 0.00884523615
      0.0189610347 0.0178566277 0.00550281908 0.0157279205 0.0392213911
      0.000475744135 0.000457889488 0.00547217904 0.0239420366
      0.00607393263 0.00791378692 0.00178637484 0.00262240111
      0.0325109176 0. 0. 0.00165366265 0.00833951309 0.0161162373
      0.00707857311 0.00180631573 0.00197294285 0.0173855666 0.
      3.21866501e-05 0.00155757577 0.0174405947 0.00406413106
      0.00424714386 0.000958705496 0.0002209308 0.00925373472 0. 0. 0.
      0.00406413106</_>
    <_>
      -0.000396767951 -0.000828931748 -0.00403805077 0.00151263468
      0.000307366223 -3.64574153e-05 -0.000151296132 0.000389674533
      -0.000299169042 -0.00805651117 0.000364261738 0.00112558086
      0.000744652527 0.00145435205 0.000701885496 -0.00198188797
      0.000674130453 -0.00696499785 0.00434331782 -0.00649487413
      -0.00564096915 0.00127207185 -0.00858150795 0.00035389894
      -0.000157412564 0.000589627016 0.004467858 0.00896774698
      0.00917738583 0.00746426266 0.000810430036 -0.0143606625
      0.000204410288 -0.026526833 -0.00897842646 0.00878460333
      -0.00636931043 0.00341948913 0.0112007484 -4.3684955e-05
      -0.000135912574 5.10593527e-05 -0.00758873392 -0.0025133614
      -0.00631420454 0.019197423 0.00554162217 0.0164407473
      -3.26133886e-05 -8.81612868e-05 2.44374623e-05 -0.00701589417
      -0.00244516646 0.0192966815 -0.00359252142 0.00595910149
      0.00413515978 -1.83320371e-05 -0.0221766941 -0.000759058865
      -0.0322864093 -0.0219949186 -0.00356530771 0.0250634793
      0.0181236416 0.0240972843 -0.000129744061 -0.0304947887
      -0.000771001214 -0.0179450139 -0.0130564384 0.0247873403
      0.0215220693 -0.000515162246 0.0030910864 -0.000712782436
      -0.0133934831 -0.00106088014 -0.00696987985 -0.00300788926
      0.0233263075 0.023482468 -0.000743821554 -0.000278407912
      -0.000809406629 -0.0232672971 -0.00342871132 -0.000314307195
      -0.00103788474 0.0238147695 0.0147551335 -0.000595352903
      0.00326008163 -0.00106306071 -0.0341216922 -0.00617953949
      -0.020344045 -0.0176227186 0.0153490743 0.0107923327
      -0.00216015009 -0.000924151216 -0.0017760573 -0.0249097813
      -0.00301736919 0.00205055461 -0.000848292373 0.0112274904
      0.0210084077 -0.000329509407 -0.000209686274 -0.000358574121
      -0.00276784529 -0.00210014428 0.00106587878 0.000375234085
      0.0212314241 0.0141962562 -0.00271898392 -0.00448070699
      -0.000657627068 -0.00917859003 -0.00583155965 0.0164832026
      0.00433212705 0.0145073645 0.0280315578 -0.000686218264
      -0.00133891706 -0.000920586172 -0.00803622603 -0.000191506464
      0.0125131328 0.00598992174 0.0281739663 -0.00437310617
      -0.0327314213 -0.0440758727 -0.00300274789 -0.0424915627
      -0.000668777269 0.0278230458 0.0208744816 -0.00399589213
      0.00683141639 -0.00115893281 -0.00352507783 0.000897099788
      0.000944144209 9.26181237e-05 0.0185318552 0.00604337594
      0.00679921918 -0.00919388607 -0.00282066897 -0.00726024434
      0.000536679523 3.53402065e-05 0.00120595831 0.00150670984
      0.000473575958 -0.00840985309 0.0053477739 -0.0183817483
      -0.0303264931 0.000667323882 -0.00726726931 0.000258610002
      0.0336370766 0.0317563191 0.00544305099 -0.00210377993
      -0.0218863618 -0.0294819232 0.000846403709 -0.00112327293
      0.000485402357 -0.000330755516 0.00816822983 -0.00272282725
      -0.0022292377 0.000273552752 0.000664926367 -4.14753868e-06
      0.00885931216 0.00601066928 -0.00501694856 -0.00166461815
      -0.00100136502 0.00119033863 0.000129372085 0.000341865001
      -6.61760641e-05 0.0103611238 0.000268936972 -0.00507965963
      -0.00161289913 0.00110402575 -0.00110419025 -0.00384745654
      -0.010909535 0.000786911114 0.00998630561 0.00441231998
      -0.000878885214 -0.00379451201 -0.00162809365 0.00037014627
      0.000199980946 0.000519584923 -0.000254523649 0.000549168559
      0.000643910782 -0.0157691222 -0.013308079 0.000251561491
      0.00174451445 -0.000449634885 -0.00592230773 -2.98776581e-06
      -0.00595018035 0.000169159146 -4.7838872e-05 -0.00011324462
      0.0017173487 0.0110537643 0.0038415629 0.000398558885
      -1.60540967e-05 -0.0159314349 0.000223518 -0.00974841323
      -0.00309442077 0.0111117046 0.000446130609 0.00466169976
      0.000398558885 0.000248986093 0.000398558885 3.349299e-05
      -6.1724777e-06 -3.60568811e-06 0.000376575394 0.00663822982
      -0.000242410097 0.00182396278 3.17246759e-06 -0.0088026626
      8.9226196e-05 -0.000980266952 -0.000317320955 0.00674160151
      0.00940912962 -0.00510386517 -0.000970087945 -4.30005639e-05
      -0.0271891896 -0.000409324653 -0.0235434268 -0.00842299685
      0.00948313624 0.0212731976 0.00189353921 0.00925019104
      -0.000192615946 -0.0302927066 -0.000575151411 -0.0136677139
      -0.00460218964 0.0214622878 0.0143574672 -0.00829018001
      -0.00247319299 -7.39668685e-05 -0.0201512463 -0.00038937747
      -0.00287676603 -0.000901429448 0.0145596918 0.02844394
      0.0152139468 0.0125477072 -0.000210100261 -0.0153665366
      -0.000221664304 -0.00106300064 -0.000353873766 0.0285391305
      0.0206245743 -0.00436496921 -0.00502025895 -0.00107471854
      -0.0174731705 -0.001520677 -0.0119299805 -0.0037922645
      0.0208057631 0.0223840158 -0.00196547434 -0.000360554754
      -0.00238276622 -0.00557909068 -0.000968942477 0.00120054663
      -0.000151594038 0.0272367503 0.0252378061 -0.000238705485
      0.0022200942 -0.00351357507 -0.0253600068 -0.00244696857
      -0.00191565929 -0.00177429116 0.0263443049 0.0176295973
      -0.0380606428 -0.0383242145 -0.013262053 -0.0177734569
      -0.00604253309 0.000800945272 -0.0119293388 0.0165264457
      0.0245470535 -0.00106645399 -0.00328461942 -7.84584408e-05
      -0.0029482157 2.79180149e-05 0.00928813964 0.00311806775
      0.0246009417 0.0159619004 -0.0161015261 -0.0350601785
      -8.17475229e-05 -0.0298394207 1.54669124e-05 0.0225450266
      0.00947610661 0.0162248388 0.0279929079 -0.0166309588
      -0.0380061381 -9.01293388e-05 -0.00395085849 -0.000206954923
      0.021901546 0.00900827721 0.0280149989 0.0277260076 -0.0386558324
      -0.0386287719 7.38086892e-05 -0.0214731023 -0.000181711119
      0.0282904916 0.0257494655 0.0277426224 0.00376482564 -0.0207370743
      -0.0289564449 -5.12027254e-05 -0.0248921476 -2.37553613e-05
      0.0281616617 0.0119957803 0.00357336132 -0.0051797349
      -0.0121065164 -0.0282982681 -5.13802079e-05 -0.00237383624
      0.000101002668 0.00645784102 0.0148028275 -0.00586441718
      0.0150924474 -0.0208914615 -0.0289744139 0.000164451922
      -0.00944293849 -0.000183399912 0.028099658 0.0193387326
      0.0155179016 0.00163439231 -0.00295512797 -0.0089389421
      5.55933957e-06 0.010709662 -9.13740223e-05 0.0223587304
      0.0163010228 0.00150343683 -0.00132506492 -0.00123498857
      -0.00365619338 -8.0677084e-05 -0.0097936606 6.84098195e-05
      -0.00630228966 0.00305063347 -0.00155820709 2.17618581e-05
      7.2744474e-06 1.4492769e-05 -0.000120027566 -0.0231118947
      -4.5744011e-05 -0.00621232158 -0.0020938497 2.89031086e-05
      0.000578391599 6.19709608e-05 4.75801426e-05 0.000473747263
      -0.00479770266 -0.000144676727 0.0269754622 0.0312370863
      0.000532309525 0.000152603883 9.26362118e-05 8.68044808e-05
      -6.1780438e-06 -0.016487075 -1.75703517e-05 0.0195105541
      0.0154714193 0.000184501114 0.000160036681 0.00730267027
      0.0118377153 0.000261479581 -0.0110142771 -0.000263107446
      0.00349329575 0.00125941844 7.81325507e-05 0.000938091136
      0.00541854883 0.00536252139 0.000107474829 -0.0107507324
      -0.000281665678 0.0020609505 0.000644194894 0.00084568176
      0.000131696797 0.00457504252 0.0126808779 -0.000173602646
      -0.0107507324 -0.000241145797 0.0208551809 0.00768451625
      0.00023859684 0.000221222843 0.00654955162 0.0159023833
      -0.000340766506 -0.0107507324 -0.000168430983 0.0138944099
      0.0060402113 0.000362003717 0.0069387788 0.00228816178
      -0.0122826099 -6.66329652e-05 -0.0173227284 -0.00104890799
      0.0022839664 0.000751862419 0.00721248193 0.0198436938
      0.0133481752 0.0190979466 -0.000148331324 -0.00592434453
      -0.000532680075 0.00077674049 0.000167722683 0.0205363873
      0.00145009579 0.00698863855 0.01748088 -0.000382215047
      -0.0144303562 -0.000763032062 0.00486594439 0.00523484731
      0.00150578981 0.00404643593 0.0011381096 0.00300098141
      6.753247e-05 0.00220859027 -0.000258007844 0.00856483262
      0.00497413008 0.00406713458 0.0359070487 0.0129466085 0.0239156969
      -4.5579498e-05 0.000859947351 -0.000220379239 9.18325677e-05
      -3.28342794e-05 0.035938628 0.0358291194 -0.0121457363
      -0.0294070058 2.54794977e-05 -0.0242195707 -0.00055080629
      0.00457795104 0.00102629373 0.0357059799 0.00691474136
      -0.00850858819 -0.0250944048 0.000307662325 0.00262388238
      6.24856621e-05 0.0107650161 0.00450316304 0.00684326794
      0.00565940328 -0.0402775258 -0.0403528139 0.00031624292
      -0.0402991436 -0.00039639551 0.00103888917 0.000414417213
      0.00561026623 0.0252914429 -0.0218885019 -0.0323131233
      0.000127095147 -0.0107578253 -0.000108681255 0.0173506159
      0.00575668272 0.0252456013 0.0251168963 -0.0256897528
      -0.0313247293 0.000544900075 0.0122880563 0.000137130992
      0.0294496473 0.0273070205 0.0250246339 0.00645115227 -0.0239438023
      -0.0289687701 8.89564762e-05 -0.030599229 -0.000255963212
      0.000345555105 0.000113311253 0.00634380803 0.00609000865
      -0.00487354258 -0.00366728683 0.000554690196 -0.000681557518
      0.000482329371 0.0216674358 0.00814852677 0.00586009957
      -9.29243251e-05 -0.0086156372 -0.0253659301 0.000303061679
      0.0157622434 9.13388794e-05 0.0297854934 0.0177286416
      0.000107890715 -0.00373296672 0.000166564059 0.000132582616
      9.56976e-05 0.00634357473 -6.18872509e-05 0.0248215981
      0.0106232436 -0.00368955685 -0.0209963173 0.00244873599
      -0.00545491045 -4.78368202e-05 -0.00585480826 0.000589808216
      0.0203486439 0.00880433526 -0.0209322982 -0.0201277565
      0.00670167431 0.0191922504 -0.000483038486 -0.00585480826
      0.000441475684 0.018322112 0.00622072723 -0.0201002415
      -4.5625271e-05 0.000315417914 0.000781106588 0.000172691507
      -0.0123859122 -5.23808631e-05 0.0304885469 0.0116573423
      -4.74587941e-05 4.93276711e-05 0.000520877133 0.00129293662
      0.000265302137 -0.019301923 0.000357341662 0.0238303449
      0.00866670813 4.25725775e-05 6.99071961e-06 0.00853885245
      0.0255265776 9.8972283e-05 -0.0109223546 0.000221970855
      0.0139327543 0.00530538941 2.18738205e-05 7.70341358e-05
      0.00842955336 0.0209721774 0.000467749021 -0.0120101692
      0.000460811076 0.00659865281 0.00220843707 6.62987295e-05
      6.09412054e-05 0.000470093102 0.00149585295 -0.000384895189
      -0.00156325358 -0.000201983363 0.00514393765 0.00469844276
      0.000158803319 0.000740813732 0.000633448479 0.00188551552
      -0.000366459397 -0.00295494311 -5.39119765e-06 -0.00191109616
      -0.000420357363 0.000889968069 0.00447830837 -3.24588909e-05
      1.20073344e-06 -5.19484456e-06 -0.00156325358 -4.34049834e-05
      -0.00156325358 -0.00261437381 0.00469136052 0.012222629
      -1.58567073e-05 -3.70589041e-05 -1.24374646e-05 8.47772608e-05
      -0.000109103872 -0.00156325358 -0.00233969954 0.0124288825
      0.00298451819 0.000299220352 0.000814058119 7.45783836e-05
      0.00297581474 8.71445882e-05 -0.000598312647 -0.000730679894
      0.0029394133 0.00537367398 -0.005344979 -0.0166820195
      0.000150000298 0.0072388961 6.04545821e-05 0.00735210022
      0.0106938565 0.00543025928 -0.00210109446 -2.73939422e-05
      -0.000255402876 4.91332357e-05 0.00357234175 -1.16317015e-05
      -0.00234777015 -0.00649649836 -0.00251120306 -0.000864962407
      -0.0103812497 -0.0241750311 8.76420818e-05 0.000909803144
      0.000106240113 0.00647202646 0.00840059295 -0.000864962407
      0.00795553811 -0.0136931716 -0.0291146766 2.5479354e-05
      0.000290654978 4.19689495e-05 0.0156789813 0.00523104845
      0.00791651476 0.0167533439 -0.0259699803 -0.0277966168
      6.46573317e-05 -0.00946994219 -5.29709769e-06 0.00141512137
      0.000516751839 0.0165820122 0.0115120336 -0.0170470402
      -0.0292867683 1.02189579e-05 9.22508843e-05 7.56074951e-05
      0.0166542158 0.00530366646 0.0109441942 0.0146057419 -0.0215309858
      -0.0268252827 3.16103287e-05 -0.0030383931 9.97268944e-05
      0.00163969491 0.000484780088 0.013992426 0.0166810509
      -0.00982311089 -0.013907983 2.30797359e-05 -0.0139235873
      -0.000122746511 4.03212834e-05 4.93373846e-05 0.0165297482
      0.0157933142 -0.0037761007 -0.00523125054 -2.98412415e-05
      -0.0105311181 4.02956321e-05 0.000612903852 0.000186371297
      0.0156112667 0.0194536019 -0.0152728008 -0.0142413862
      6.04685738e-05 -0.0140382377 -0.000155671558 0.000116092386
      7.13637928e-05 0.0192468166 0.0264162272 -0.00780215487
      -0.00472625764 -0.000160064781 -0.022431409 -0.000185117315
      2.82291458e-05 0.000140249947 0.0262509156 0.00140209426
      0.00766815757 -0.0028696449 -0.000236417603 -0.0161047466
      0.000109085973 0.00167130947 0.000508526457 0.00175364944
      -0.00329419482 0.0105905207 0.0245552082 -0.000365528977
      -0.00991972443 -6.03752123e-05 0.00142881158 0.000452892302
      -0.00317675108 0.0155136501 0.00442601554 0.00882809516
      -0.000643413689 -0.0290828124 -0.000295052916 -0.00358693651
      -0.00113874907 0.0154249882 0.013251273 0.0224547405 0.0243519451
      -0.000666110252 -0.00976625457 -0.000292370765 -0.00727363676
      -0.00240753964 0.0134294219 3.38663849e-05 0.018943252
      0.0323464312 -4.9023045e-05 -0.0119327083 -2.60661727e-05
      0.0021419914 0.000729324063 7.89898622e-05 7.18736192e-05
      0.0114997756 0.0225674678 0.000187906218 -0.0165401194
      -4.68681574e-05 0.000316076359 0.000119048971 7.89745754e-05
      0.00259233429 0.0214190595 0.0241757948 -0.000211691469
      -0.0119327083 0.000107587017 -0.00123820244 -0.000359096681
      0.00275204889 -0.00022269148 0.00558377011 0.0129602989
      -0.00016357335 -0.0226220619 -0.000162823475 7.53926215e-05
      -2.73710684e-05 -0.000211430466 0.00853421167 5.92149172e-06
      1.71164447e-05 -0.00038997535 -0.000130154163 -5.3453572e-05
      0.00111767324 -0.00463524554 0.00856793858 0.009655945
      3.71375718e-05 2.28454501e-05 -0.000289697811 -0.00392708322
      -0.000151765373 0.00111767324 0.00425773254 0.00964013766
      0.00137577183 -8.64426256e-05 -1.56347796e-05 -0.000263231457
      -0.00657892413 -3.62520477e-05 -0.0143393129 -0.00552755455
      0.00129218819 -0.00435456075 -0.000259216205 -1.6639653e-05
      -0.000179606621 -0.00527545996 6.30783252e-05 0.00104642159
      -0.00344138849 -0.00476385001 -0.00408582296 -0.000240993846
      -0.000967607659 2.55690593e-05 -0.000762757903 -8.22161383e-05
      0.00805520173 0.00619916944 -0.00428154273 -0.00702258945
      -0.0063948757 -0.0164840445 9.48578308e-05 -1.87872283e-05
      -5.56019086e-06 0.0186952017 0.00776328007 -0.00693683373
      -0.00470894249 -0.0005544913 -0.00150233065 2.82271831e-05
      -0.000186126068 -2.45292213e-05 0.0111553054 0.00956489705
      -0.0047458848 -0.00212992146 -0.00697603682 -0.0169084799
      6.31028161e-05 0.000151030777 -2.16867611e-05 0.0264354795
      0.0144118508 -0.00212992146 0.00172412593 -0.013620927 -0.02264327
      -3.58010925e-06 2.41691869e-05 4.28992098e-05 0.00627887575
      0.00203553657 0.00174025062 0.00846657623 -0.0200746786
      -0.0256069377 4.66633992e-06 -0.000437753071 4.86747012e-06
      0.000380965881 0.000112486137 0.00844387524 0.00856017414
      -0.0113221398 -0.0247812979 7.96817476e-05 -5.029354e-05
      -2.45547326e-05 0.00851232465 0.00287509756 0.00802023988
      0.0117047615 -0.0122732352 -0.0224103425 -6.44103857e-05
      -0.000197538044 -0.000197938294 0.000134326765 5.85555608e-05
      0.0110064605 -0.00644751638 -0.0286109652 -0.0221368
      4.83842887e-05 -0.0107079912 -0.000509948644 9.23173357e-05
      -2.47010703e-05 -0.00625350093 0.0178457592 -0.00917592365
      -0.00389156188 -0.000135545604 -0.0260448083 -0.000660974591
      -6.35051583e-06 3.17698286e-05 0.0174221024 0.0116355522
      -0.0036800066 -0.00661961129 -8.1618251e-05 -0.000525671465
      -0.000449510087 2.32434377e-05 -6.77577555e-05 0.0111173261
      0.0236371849 0.0173601974 0.0224313792 -0.000159905117
      -0.016589554 -0.000484805641 -0.000142957768 -0.000116614043
      0.0239528753 0.0227208268 0.0173228178 0.0204585139
      -0.000456276292 -0.0268149264 -0.000212000479 -0.0146023324
      -0.00518220989 0.0224769954 0.0152847767 0.015216575 0.00397867057
      -0.000483598677 -0.0160242263 -0.000143447294 -0.0188406799
      -0.0118249832 0.0154179502 0.0174770579 0.0154570527 0.0255281255
      -0.000119707314 -0.0206386 -0.000171479362 -0.0154711884
      -0.00510633085 0.0176405609 -0.0113962796 -0.00232172897
      -0.00523408735 6.54521064e-05 -0.0192179214 -4.90703496e-05
      -0.0230066795 -0.0129863173 -0.0119870147 0.0144618768
      0.0209949464 0.00697229244 0.000263355934 0.00900383946
      0.0010298111 -0.00760427816 -0.00242575235 0.0149441287
      -0.00163885311 -0.00235792948 0.000698236981 -7.91995626e-05
      -0.0113047967 0.000421591394 0.000854503829 7.38483577e-05
      -0.00159705745 -0.00635918556 -0.0121090375 -0.0124060297
      0.000774718414 -0.00942201726 9.55085561e-05 -0.0103639038
      -0.00317712594 -0.00663531059 -0.00333840307 -0.00578465639
      -0.0152687272 0.000104081104 -0.00818656664 7.5058897e-06
      0.000164742902 0.000118613185 -0.00320734247 -0.00110127463
      0.000389382942 0.00321333623 0.00157898187 0.00904353894
      0.00496378448 -0.011875106 -0.00324119907 -0.000715511444
      0.00305750966 -0.00013607998 0.00616670679 0.00176385581
      0.00908297393 0.00830260105 -0.025214253 -0.00927842129
      0.00305750966 0.00521423435 0.000274387159 0.000972366019
      0.000241392932 0.00184036989 0.00159791752 0.000562377565
      0.000251419988 0.00499256002 0.00840190984 0.000399182143
      0.00105269917 0.00053762662 0.00218336959 0.0021548362
      0.000818161003 0.000492683204 0.00881016441 -0.011027161
      -0.000915173907 -0.00124155346 0.000170853193 0.00056357251
      0.000309980212 0.0136549594 0.00642770249 -0.0104426807
      -0.00225692871 -0.00694041979 -0.0217520967 0.000608241884
      0.00260676676 0.000187157435 0.0388198979 0.0182707198
      -0.00225692871 0.000741249416 -3.02892677e-05 9.32849071e-05
      8.10627607e-05 0.000188272388 -5.75616014e-06 -7.79322945e-05
      4.35981201e-05 0.000867925701 0.00383653212 -7.10822351e-05
      6.25297753e-06 0.000119699558 0.000495970482 2.24748128e-05
      -0.000111547866 0.000121518126 0.0040086857 0.00409699837
      -0.0231722631 -0.0360133611 -0.000226002652 -0.00425499864
      -0.000342594023 0.00673969602 0.00206520758 0.00409699837
      0.0160259213 -0.0083626993 -0.022076197 -0.0041282787
      -0.00496634422 -0.00197856477 -0.000520290865 -0.000365728629
      0.0151168061 0.00106309413 -0.000219750553 -0.000260653003
      -0.000198647947 -0.0011431172 -4.04433777e-05 -1.90484097e-05
      7.63668504e-06 0.00113308604 0.00207880605 -0.00023911825
      -0.000245578005 -0.00212442549 -0.000707575004 -3.47023015e-05
      -0.000454454246 -0.000163758479 0.0019889588 0.0130321914
      -0.0128854718 -0.00219318876 -0.00912552699 -0.0190643314
      -0.00612934586 -0.00571287656 -0.0027098353 0.0113255661
      0.0156176249 0.00226547406 0.0323875137 -0.00479435408
      -0.0452701487 -0.0036139437 -0.00425324589 -0.00304631074
      0.0145485932 -0.00347955315 -0.00539348973 -0.00107116357
      -0.00467570219 -0.00300566386 -0.000317451457 -0.00320487935
      -0.00109322695 -0.00272681634 -0.00823045149 -0.00757145556
      -0.00044997537 -0.00044611792 -0.0101356003 -0.000247251708
      -0.000487841869 -0.000323563872 -0.00700368732 0.0159751587
      0.0297451802 0.0355426148 -0.000361642946 -0.00497438386
      -0.000373336923 -0.0177728459 -0.00184048666 0.0157987308
      -0.0152174802 -0.00672953343 -0.0204657 0.00221572327
      0.00254402007 -0.000273814221 -0.0328741409 -0.0114150112
      -0.0125059821 0.000973014103 -0.000103345919 0.000202503143
      -4.09683489e-05 0.00212401641 -6.47557099e-05 -8.01550595e-06
      0.00174237869 0.00277781673 0.00227663363 0.000107042586
      0.000151760265 0.000187392361 0.00437338324 -0.00039536439
      0.000150185035 0.00293441769 0.00541328499 -0.0147919171
      -0.0161136743 -0.0360606238 0.0113816401 0.0352702811
      -0.000482748001 -0.00692883832 0.00197699643 -0.0104088644
      -0.00859496742 -0.000560764456 -0.0189154334 0.00107304694
      0.0274795089 -6.86874337e-05 0.00415103836 0.00192913204
      -0.00676959241 0.0125362556 0.00596446451 0.00113960775
      0.000597438193 0.0145531865 -0.000533076236 0.00426241383
      0.00264112116 0.0140616717 0.00280562439 0.00347921764
      0.00050388102 -0.00044101823 0.00904118735 0. 0.000921953353
      -0.000240083376 0.0025629343</_>
    <_>
      -0.000126196974 -0.0024492084 -0.00808726996 0.00255154981
      -0.00116644672 9.89312866e-06 -7.84741205e-05 0.000553038321
      -0.000360824721 -0.00920216832 -0.00242413254 -0.00575955864
      0.00138502067 0.000330156356 0.0010024748 -0.00288823689
      0.000491754035 -0.00878888182 -0.00832677074 -0.00539470557
      0.00231609587 0.00216832245 -0.0274709724 0.00010616982
      -0.0033808786 -0.000290947151 -0.00848975778 0.0175875854
      0.0280174147 0.0156082893 0.00134777499 -0.03445125 0.000428976491
      -0.0330049954 -0.0129408799 0.0169775542 -0.0099237673
      0.00294429366 0.0132360244 9.29511298e-05 -0.00471926806
      -0.000400061515 -0.0156341158 -0.00602130592 -0.010444547
      0.0287018642 0.00884439517 0.0276222285 5.30415418e-05
      -0.00186790759 -3.54767326e-05 -0.0175968613 -0.00617031846
      0.0288576521 -0.00630838657 0.0186031163 0.0133185238
      4.2683776e-05 -0.0368084013 -0.000339146907 -0.0530963428
      -0.0321755484 -0.00650377106 0.0405807011 0.0295446794
      0.0356008224 -0.00012294919 -0.0391443484 -0.000941889768
      -0.0218696482 -0.0200707503 0.0403973684 0.0355584957
      0.00109106861 0.0065149148 -0.000738527509 -0.0101832971
      -0.000602351443 -0.0184649099 -0.00617159577 0.0370399095
      0.0384390056 -0.00111878954 -0.000786089804 -0.00110175041
      -0.0432835855 -0.00102893868 6.15479512e-05 -0.000259245251
      0.0391116515 0.0309769623 -0.00153632811 -0.0003301916
      -0.00131698698 -0.0446066186 -0.00453974353 -0.0314164758
      -0.029940309 0.0312838703 0.0314607732 -0.00191352353
      -0.00128203689 -0.0015578887 -0.0546678528 -0.00240185647
      0.00382614182 0.00109394186 0.0315332636 0.0340396389
      -0.000224220246 -0.000189577971 -0.000152554756 -0.00150356663
      -0.000366339082 0.00213391706 0.000802523631 0.0340062939
      0.0182108525 -0.00535704428 -0.0139641482 -0.000374227209
      -0.00121714361 -0.00161130459 0.0273333881 0.00911043771
      0.0176804792 0.0457880981 -0.000279988803 -0.000763318385
      -0.000285705726 -0.0276255962 -0.00044132091 0.0192875136
      0.00939903874 0.0455050394 0.00519727822 -0.0551532209
      -0.0640929639 -5.49855031e-05 -0.0626910552 -0.00162271236
      0.00729981298 0.0160562322 0.00565651897 0.00279455492
      -0.00141059852 -0.00529247709 0.00134593784 0.0024241975
      -0.00010593683 0.0272748731 0.00915378332 0.00280857179
      -0.015386451 -0.000311562297 -0.00139963464 0.000724086596
      0.000803867122 0.00159843441 0.00420793053 0.00112752023
      -0.0141595015 0.00484588509 -0.0245676301 -0.0446837544
      0.00115614512 -0.0251555238 6.72854512e-05 0.0213764012
      0.0265787039 0.00555013958 0.00504336832 -0.00472328393
      -0.0167291574 0.00115531648 -0.0154757695 0.000490933424
      -0.0057304143 0.00162507303 0.00428036368 -0.00324949925
      -0.00025604415 0.00384178269 -0.00157518627 0.00542511232
      0.00791011378 -0.00432438124 -0.00633463031 0.000543154427
      0.00283422042 -0.000412412657 0.00054553902 -0.00022344508
      0.0120493462 -0.000109230874 -0.00286585256 -0.00280630798
      0.00328699895 0.0144546889 0.00369506772 0.0100437915
      -0.00136135099 -0.0110420482 0.00512456568 -0.0107529368
      -0.0175060797 0.013288511 0.000520747155 0.000477539637
      0.00110817549 -0.000359509228 0.00900363643 0.000882277032
      -0.00625041081 -0.00723279128 0.000158270777 -0.000598047045
      -0.00336821075 -0.0018071162 4.4941884e-05 -0.0130859977
      0.000199933813 -0.00140424387 -0.00053245842 -0.000715983741
      0.0116077727 0.0154020879 0.00565832667 -5.43089736e-05
      -0.0294623151 0.000227440556 -0.0143540706 -0.00474198861
      0.0115312338 0.000149397063 0.00720354915 0.000114221933
      0.000204179727 0.000114221933 -9.69584507e-05 -0.000826168689
      -0.000271975092 -8.24849558e-05 0.0083046481 0.00371952285
      0.000968642125 -0.000305508351 -0.00799313746 2.24253254e-05
      -0.00627592858 -0.00207231427 0.00834855158 0.0134128286
      0.00425630435 0.00965779182 -0.00030236665 -0.0451447554
      -0.000431241206 -0.0296894852 -0.0100752795 0.0135541344
      0.0344929136 0.00136939413 0.0151911117 -0.00035254375
      -0.0351832435 -0.000979085336 -0.0186873563 -0.0056909495
      0.034695629 0.0203498621 -0.00934247486 -0.0119839581
      -0.000789549144 -0.0311908629 -0.000557938823 -0.00973117165
      -0.00338286045 0.0203857291 0.0409089476 0.0184359066 0.0207333006
      -0.000810436846 -0.0205647592 -0.000449276878 -0.00101983198
      -0.000493052765 0.0404735506 0.0344655216 -0.00555922417
      -0.00663158856 -0.000497485395 -0.020880321 -0.00178038783
      -0.00969742518 -0.00414790818 0.0343600251 0.0440509729
      -0.000609691895 3.81825594e-05 -0.000238517241 -0.00668019475
      -0.00110549666 0.00201175339 -0.00183328672 0.0434697717
      -0.00496378029 -0.010549848 0.0116889784 -0.00225098501
      -0.0171782766 -0.00234604999 -0.00924554281 -0.00593108498
      -0.00517855631 -0.00731676584 -0.00657564914 -0.0154445041
      -0.000463433302 -0.0119894305 -0.00578952255 -0.0197595563
      -0.0212157313 -0.00731676584 0.0394056514 -7.90475242e-05
      -0.000231163198 -0.000127474326 -0.0181828216 -0.000218134024
      0.013537555 0.00460295985 0.0390938073 0.0213969108 -0.0203601848
      -0.0516110174 1.81788073e-05 -0.0549259819 -0.00096371572
      -0.0202154797 -0.0135752056 0.0212023295 0.0402533598
      -0.000148597042 -0.000223315685 -0.000161154836 -0.00781565066
      -0.000549724267 0.0105338152 0.00480349362 0.0402646177
      0.0429369882 -0.00302002858 -0.00700770924 0.000134599279
      -0.0434156433 -0.0014600982 -0.011339454 -0.00142217521
      0.0428616032 0.0159222838 -0.0105937757 -0.0273331068
      6.29358401e-05 -0.0407329164 -0.000204664437 -0.000107225365
      -0.000480594608 0.015587559 0.0119283143 -0.00246514194
      -0.00717661204 8.9573994e-05 -0.0136222029 4.28992789e-05
      -0.00329664559 0.0153148174 0.0111441668 0.0294040274
      -0.00118047989 -0.00268802023 0.000438183983 -0.0124082277
      -0.000245178031 -0.00136175263 -0.000542293361 0.0305584501
      0.00764789712 -0.000206889788 -0.000349258335 0.000870837597
      -0.00136175263 6.01206593e-05 -0.00136175263 0.00056027394
      0.00734780636 0.00335040246 0.000162797412 0.000419751741
      0.000190819119 -0.0142957568 7.75842418e-05 -0.00861189514
      0.00487964647 0.00317206699 0.000187014215 2.21271566e-05
      5.82287248e-05 6.59867646e-06 -0.0080307154 -6.14072196e-05
      -0.00332321064 -0.00107306335 0.000211396065 0.00116122304
      0.000257726933 0.000692567904 0.00187132927 0.00102203235
      0.000115465169 0.00254243589 0.0129136844 0.00104235089
      -1.61448825e-05 0.000122257261 0.000137924566 0.000213429026
      0.000220010203 -0.000259122433 0.00581719354 0.0125263641
      4.06505169e-05 0.000190153209 0.0128968358 0.0195588563
      0.000193430635 -0.0154596427 -8.05933014e-05 0.00549092796
      0.00181580056 6.24330414e-06 0.00127310865 0.0069772359
      0.00452398555 -0.000264954579 -0.0152619826 -7.70634651e-05
      0.0026526635 0.000881407585 0.00110922195 0.000206882338
      0.00671415916 0.0185904615 0.000208892641 -0.0152619826
      -0.000101872203 0.0336998738 0.0131135918 0.000247788848
      0.000429797918 0.00881544966 0.0204707272 -0.000517881243
      -0.0152619826 -0.000313914759 0.0207973551 0.00803144556
      0.000508042809 0.01009739 0.0158978961 0.00894616731
      -0.000484668941 -0.0131889805 0.000101903541 0.00300864759
      0.000983202714 0.0103244511 0.023949597 0.00745292287
      0.00109997706 -0.000385518419 -0.0066930321 2.71384779e-05
      0.00137016561 0.000379274134 0.0236703716 0.00241630035
      0.00971896388 0.0235500243 -0.000320421677 -0.0110196872
      0.000144711958 0.0237092189 0.0113872839 0.00245665084
      0.00564372027 -0.0267143827 -0.0463541001 -0.000222119343
      -0.0261182953 -0.000142159668 0.0225676466 0.0112730656
      0.00500789052 0.0354106836 0.000718510477 0.00159282016
      3.35754848e-05 -0.00235974439 0.000128012121 -0.0139051639
      -0.00483301654 0.0345333964 0.0369466916 -0.0039416817
      -0.012882079 0.000298328814 -0.00935420766 7.56917434e-05
      -0.0330187269 -0.0209529586 0.0364220366 0.0113670742
      -0.0236718878 -0.0467313081 0.000149245447 -0.0362432785
      8.45036484e-05 -0.00527538685 -0.000764625613 0.0102548003
      0.0144863101 -0.00356421154 -0.0129679888 0.000273358222
      -0.0471949466 0.000174136119 -0.0453987904 -0.0269149318
      0.0137412874 0.03692526 5.3588775e-07 -0.000167542239
      -0.000115774805 -0.0214891676 -0.000562167435 -0.00825803448
      -0.00785488635 0.0369611755 0.0395553373 -0.000431420805
      0.00127525511 -8.89820512e-05 -0.0210846756 -0.00190404698
      -0.00283012516 0.0216998495 0.0408905596 0.0119194062
      0.00175783155 0.00610661553 -0.000933999079 -0.0559699647
      -0.00083113974 -0.0477066897 -0.0259744916 0.0118137039
      0.019279087 0.0176901389 0.0245339833 -0.00227971305 -0.019837264
      -0.00107847515 0.0015902624 0.00158293743 0.0201560855
      0.0108282818 0.00120171276 0.00405438896 0.000407401239
      -0.0170062054 -0.000389849884 0.010079911 0.0137334829
      0.0114733074 0.000810179219 0.000905306835 0.00264972774
      0.000433423091 -0.0128323706 -0.000296869664 -0.00697989529
      0.00100770406 0.000762083859 0.00651425216 0.0151582044
      0.0183444545 -0.000408822001 -0.0119355377 2.77723921e-05
      0.0246425904 0.0101404702 0.00687693572 0.00051013747
      0.00778911263 0.0220172629 -0.00074964785 -0.0119355377
      -0.000643039763 0.0171930976 0.00595572591 0.000495023152
      -7.07153158e-05 0.00058162905 0.00162078277 0.00012594962
      -0.0166776367 0.000177029709 0.00657999609 0.00292369933
      -0.000144551625 -2.62585945e-05 0.000916387595 0.00242797355
      -0.000185407858 -0.0131773045 7.64152428e-05 0.0238221735
      0.00873244181 -3.60773993e-05 -3.6348345e-05 0.0122126443
      0.0351214372 -0.00107224227 -0.0136762084 -0.000319280836
      0.00849679857 0.00350023736 -0.00011002917 -1.3472312e-06
      0.0135250641 0.0327591747 -0.000604890636 -0.0152937155
      -0.000226745644 0.00736419298 0.0023813562 -4.07992011e-05
      9.16338468e-05 0.000821133901 0.00253357692 -3.05994981e-05
      -0.00366676413 -0.000370133755 0.0117052784 0.00893452298
      0.000170672429 0.00107824989 0.00105500827 0.00325889862
      -0.000340873667 -0.0062222532 -0.000625303539 0.00283924164
      0.0033026319 0.0012410084 0.0051365965 -2.66747847e-05
      -2.27753208e-05 -0.000270663731 -0.00366676413 -0.000413058675
      -0.00366676413 -0.00382115482 0.00524858339 0.0135964239
      4.97197434e-05 2.27150394e-05 -3.26511763e-05 -0.00310339103
      -0.000933325849 -0.00366676413 0.00157422968 0.0136455121
      0.00149457809 -0.00286677945 -0.00801498257 2.66796997e-05
      -0.000407472457 -2.92288441e-05 0.0114751849 0.00318823336
      0.00139727967 0.0132616851 -0.0232383087 -0.0418578535
      -0.000106199426 -0.0189015474 -0.000134287402 0.0133241015
      0.0216169041 0.0131861391 -0.000717892952 -0.00618932117
      -0.0177775156 0.000132995934 0.00383105851 -0.000315842073
      0.00185242167 0.00487512024 -0.000893522229 0.00664847996
      -0.0230253097 -0.0401552729 -0.000237791683 -0.0236550998
      0.000114687005 0.0328509137 0.0192023925 0.00682154344
      0.0263660289 -0.01788304 -0.0340982899 -0.000421738456
      -0.0481430031 -0.000545167888 0.0218353216 0.00719108153
      0.026172189 0.0350385606 -0.000386903033 -0.000882657885
      -0.00103520858 -0.0493013151 -0.000374118565 -0.0425469019
      -0.0171504989 0.0350564383 0.0236999821 -0.00952571537
      -0.0285895634 -0.000668281747 -0.0320557803 5.08129924e-05
      0.0165412389 0.00573596964 0.0245136209 0.0181988534
      0.000527206517 0.00208399026 -0.000789979124 -0.0332711972
      0.000155377435 -0.0341108255 -0.0209729113 0.017921716
      0.0208091754 0.00613800902 0.0192716569 -0.00038615879
      -0.0439832211 -0.000132008616 -0.0304759257 -0.0170324873
      0.0203471463 0.00797132589 0.0177049171 0.0160659105
      -0.000245838048 -0.00464261649 0.000154510475 -0.0181306545
      -0.0109346593 0.00772970915 0.00890884828 0.00857413188
      0.0247543044 -0.0002079595 -0.0139913019 4.71972307e-05
      -0.0417519212 -0.0203964002 0.00835098606 -0.000915805053
      0.0122890435 0.00574528705 1.02846634e-05 0.00319058378
      -2.44456824e-05 -0.0186131746 -0.00636445545 -0.00106955867
      0.00118656317 0.00427491963 0.0157584827 -0.000377297401
      -0.00693910057 0.000164248238 -0.00114064489 -0.000538942113
      0.00222612987 0.000571645622 0.00237139757 0.000399570534
      -0.000517569715 -0.00259670941 -0.000329969072 0.001440958
      0.000359891768 0.000697292155 -0.0024277831 -0.000322460372
      -0.00263975095 -0.000123534744 -0.0117210699 1.84871078e-05
      -0.00175368541 -0.000654665753 -0.00176911207 0.0144685451
      0.00838248245 -0.00191010383 -0.000298393716 -0.00538326753
      0.000154940717 -0.000105811261 -7.08947118e-05 0.0149438912
      3.5664114e-05 0.0153978923 0.00967417844 -0.000717138348
      -0.00476465235 -0.000260131463 0.00317609613 0.00104826549
      -0.000204775759 7.59815011e-05 0.0120483767 0.0175016541
      -0.000204677184 -0.0116155613 -0.000405924337 0.000432671921
      0.000146110542 -0.000102123297 0.00293784309 0.00189623493
      -0.00476465235 -0.000282286172 -0.0049152025 0.000175474663
      0.000236568885 0.000154251975 0.00291250506 -1.54177142e-05
      -0.00575349992 0.00161595864 9.39095207e-06 -0.00432812981
      0.000130755914 0.000135483482 1.52980683e-05 -0.000129652079
      0.0101783583 -0.000105475781 -4.06069103e-06 -0.000862127694
      0.000984774786 -0.000214038184 0.00024412015 -0.00872341357
      0.0100807417 0.0155590596 -0.000225816679 -0.000625164597
      -0.000226047952 0.00348666636 -0.000608781818 0.00024412015
      0.00521204947 0.0147372996 0.00125770248 -0.000338467915
      -7.3959498e-05 -0.000488534686 -0.00730229728 5.33780694e-05
      -0.0257421751 -0.010195558 0.00124116638 -0.000487242854
      -0.00184614246 -0.00468157185 -0.000145320068 -0.00567857735
      0.000222039627 0.000154882626 -0.0157090966 -0.000639892824
      -0.000322532782 -0.00233205431 -0.00675087376 3.71309507e-05
      -0.000504474621 -0.00026688003 0.0124177467 0.0104329092
      -0.000816517626 -0.00406407332 -0.0129799591 -0.0314422436
      -0.000116266994 -0.0181330871 -6.26859182e-05 0.0353917703
      0.0151994769 -0.00366956904 -0.00630628085 -0.00369853387
      -0.0110457344 -2.52638893e-06 -0.000349660288 7.04426657e-06
      0.00632197363 0.00748555968 -0.0063784509 -0.0013263257
      -0.0141915297 -0.0373956859 -6.55065596e-05 -0.00775673194
      -0.000120343815 0.0395138524 0.0225415919 -0.0013263257
      0.0116589693 -0.0104061486 -0.0298043974 -0.000391275098
      -0.0204919185 9.93422509e-06 -0.00621732185 -0.00214240351
      0.0118512008 0.0134871947 -0.00211287593 -0.00631985627
      -0.000390495465 -0.0184343159 6.95116905e-05 -0.0377519801
      -0.0222051628 0.0136555713 0.0188207906 -0.0139670921
      -0.0321749635 0.000211213104 -0.0146912364 -0.000228639168
      -0.00265712454 -0.00101805467 0.0188184753 0.013265714
      -0.00350237102 -0.0101984944 -1.58109833e-05 -0.00774545223
      -0.000183703291 -0.0381474718 -0.0238080509 0.013265714
      -0.00238272338 0.00456806039 0.013808907 -9.55124733e-07
      -0.00155277492 2.85411988e-05 -0.0263594408 -0.00896859635
      -0.00240051234 -0.0101882908 0.0176956505 0.0331816822
      3.86693864e-05 0.000479846087 -9.68266977e-06 -0.00185788295
      -0.00052128284 -0.0103847682 -0.00451430678 0.00638065953
      0.0193534177 -0.000134374917 -0.000381573336 -1.21733774e-05
      -0.027984513 -0.00946146064 -0.00451430678 -0.00647264533
      0.025140306 0.0398316458 -1.15981829e-05 -0.000297686172
      -2.12748473e-05 -0.00182915048 -0.000511925726 -0.00569912
      0.00177332468 0.0159597974 0.0132978428 2.16965509e-05
      -0.00737438537 2.91444121e-05 -4.20739161e-05 -1.76827762e-05
      0.00185713591 0.0141468393 0.00580309471 0.000327978982
      5.54901344e-05 -0.0188393034 -0.000250561425 5.03107112e-05
      9.86662417e-05 0.0144952983 -0.00791940279 0.0100379204
      0.00871956255 7.68855825e-05 -0.00204647519 -8.45957911e-05
      -5.73193101e-05 0.000123365244 -0.00664328178 -0.00739043625
      -0.012731065 -0.010421888 0.000300413289 -0.0142272245
      -0.00055196957 -0.000210180806 1.70980511e-05 -0.00746795582
      0.0174722113 0.00873274542 0.00873274542 0.00061803119
      0.00326765585 0.000138902804 0.00203571632 0.000964460836
      0.0188334361 -0.000346298446 -0.00446682842 0.00468260469
      0.000308325543 0.00275382213 0.000746652833 0.00121916924
      0.000101024023 -2.87085841e-05 0.00143288681 -0.0101355882
      -0.022900328 0.00117342151 -0.0345165394 -0.000747235026
      -0.000643924519 0.000310970965 0.00117496529 -0.000792833045
      -0.000651782204 -0.00217861473 0.000104601553 -0.00124299258
      -0.000233414787 -1.69748782e-05 -2.02511983e-05 -0.000675411953
      0.00614947639 0.00217299093 0.00754101621 0.00231375615
      0.0199442506 0.00920463912 -0.0188275781 -0.00525005255
      0.00723614637 0.010368078 -0.000954715884 -0.00156477944
      0.00669913087 0.0136125125 0.0165012758 -0.0466397591
      -0.0369393118 0.010368078 0.00957226567 0.000346000597
      0.00159894268 4.98095105e-05 0.0038044767 0.00280883466
      0.000887516129 0.000349388807 0.00929518137 0.0102966232
      0.00101438339 0.00190562871 0.00110086065 0.00232148147
      0.00387591333 0.00128895626 0.0014799604 0.0117028952
      -0.0140033867 -0.007409818 -0.0202740636 0.000166889091
      0.000519677764 0.00108700641 0.00449719792 0.0035389252
      -0.0133329891 0.00293647032 -0.014030654 -0.0412935875
      0.000404289487 0.00400847197 -8.81013984e-05 0.0617902465
      0.0304028597 0.00293647032 -0.00190877425 2.21252703e-05
      0.000162048236 9.41891922e-05 0.000140083313 0.000128957123
      -6.39480058e-05 0.000162448341 -0.00172033545 0.00270396494
      -0.000206349156 5.11446378e-05 9.83992722e-05 0.00126985414
      -1.20465475e-05 -0.000485219323 -2.85567467e-06 0.00289435452
      0.0151045416 -0.0167621113 -0.0427832901 0.00131061906
      -0.0118262246 -0.00201867451 -0.00639571343 -0.00236454094
      0.01513224 0.0142940897 -0.00442312052 -0.0127506582
      -0.000477070716 -0.00984582026 -0.00174775708 -0.0542319305
      -0.0280149747 0.0142940897 0.00134873285 -0.000139403026
      2.44232924e-05 0.000187231286 -0.000223239447 -0.00027781041
      -0.000516532164 -0.0002208613 0.00141312694 0.00124447455
      -7.38488307e-05 -1.85203407e-05 -0.000136123403 -0.000501082919
      -0.000243336559 4.10433895e-05 -0.000607280293 0.00132011122
      -0.00827994477 0.00790663715 0.0240932833 -0.000991216046
      -0.000755432469 -8.87213173e-05 -0.0220647678 -0.00771799218
      -0.00827994477 -0.00827994477 0.0208004601 0.0511044711
      -0.000229092431 -0.00211400585 -0.000148162188 -0.00137111393
      -0.000283887261 -0.00827994477 0.00229155156 -5.67672469e-05
      -8.39480053e-05 -0.000275007798 -0.000192342995 -1.26744744e-05
      1.44325786e-05 -0.000158823561 0.0023264389 0.0012173336
      5.98789484e-05 1.71500506e-05 -0.00011684186 -0.000828504562
      -2.11660281e-05 1.84047949e-05 2.01643015e-05 0.00119248056
      0.00129242125 0.0316914096 0.0177052412 0.000780269387
      0.0150103392 -0.000372501236 0.000287934992 0.00626333244
      0.00129242125 -0.0201694891 -0.0111536337 -0.0442168564
      0.00559490221 0.0200308133 -0.00122008717 0.000491873478
      0.00823527016 -0.0154819777 0.00258696941 0.000326477806
      0.000299891195 4.58950926e-05 0.00375065231 -0.000124116588
      0.000135414564 0.00277638109 0.00506739551 0.00567420246
      0.000791600381 0.000351929659 0.000706564751 0.00836118963
      -0.000225224227 0.000334143057 0.00452190964 0.0100023262
      -0.0121879652 -0.0142569402 -0.0636560172 0.0156205902
      0.0176233854 -0.0045737396 0.000284248294 0.00494974386
      -0.00429860177 -0.0127090765 0.00907245465 0.00267926138
      -0.00541366497 0.0253114235 -0.00446732622 0.000782928837
      0.00135065371 -0.00591415912 0.00870160758 0.0110835852
      0.00294796238 0.00179642369 0.0132804997 -0.000515840889
      0.00305277854 0.00293558952 0.0104254885 -0.000653543626
      0.00467700139 0.00153758959 -0.00101988437 0.00896988343
      -0.00055045815 0.000528410834 0.000213114647 0.00219784072</_>
    <_>
      0.0018476533 0.00154444121 0.00109574583 0.00349870906
      0.00274531241 3.26637019e-05 9.33034753e-05 0.000644114043
      0.00203803298 0.00946172699 0.00452003535 0.00951375999
      0.00173765887 -0.0147507824 0.00127698446 0.000979208271
      0.00281012664 0.0120364157 -0.00430346234 0.0123161171
      0.0280159134 0.00272085355 0.00484574167 0.000813405961
      0.000685784325 0.00164960185 -0.00424586656 0.0178528111
      0.0534496345 0.0534496345 0.00164199132 -0.0157371704
      0.000614356832 0.000794982829 0.00169397064 0.0176193323
      0.00863295514 0.00368471979 0.0110291503 0.000103149512
      -0.000129784821 0.000162768178 0.000401870697 0.000388142478
      0.00876618829 0.0224002972 0.00385042117 0.0129846036
      -0.000982583966 -0.00465016905 0.000182933174 0.000785782759
      0.000295251142 0.0231114849 0.0300293379 0.0233111642 0.0325239785
      -7.49097444e-06 -0.000285418413 4.09868662e-05 0.000310024712
      0.000153613044 0.0303028543 0.0139317419 0.00343379192
      0.0139317419 -0.000611699594 -0.0118823778 3.11952899e-05
      0.000405764265 0.000169030202 0.0139317419 0.0254924688
      -0.00298649166 -0.00746473111 -0.000135830836 -0.000561085762
      0.000187529819 0.000342319516 3.80905803e-05 0.0256641489
      0.0204679389 -0.015244998 -0.0221983939 -0.00012749515
      0.000210956336 0.000178709422 -0.000275322702 -0.000106283544
      0.0203927662 0.0437462293 -0.0111067947 -0.00479056127
      -0.000122520127 -0.00935338251 0.000227784811 0.000379072037
      0.000222534421 0.0437452719 0.00186897558 -0.0206525456
      -0.0222367868 -9.31633258e-05 -0.0051669362 0.000293666177
      0.00474723894 0.00172099262 0.00175491069 0.0118646631
      -0.00814056955 -0.0157409161 -3.81083773e-05 0.000494768028
      0.000165511621 -0.00990907289 -0.00322064408 0.0116826147
      0.0134173399 -0.00111097959 -0.0032647301 9.22450927e-05
      -0.00317820138 3.46165725e-05 -0.00368480524 -0.00947359111
      0.0131964386 0.0193291213 -0.0120776854 -0.0321420133
      -2.95914306e-05 -0.00324973278 0.000398534379 0.0151368426
      0.00801841822 0.019214442 0.0136862481 -0.0187475067 -0.0273081996
      -0.000101131402 -0.0174120683 4.88020451e-05 -0.00287687522
      0.00481681619 0.013625456 0.0121431192 0.000943281397
      0.00101340236 0.00181485247 -0.00993416086 -5.97303915e-05
      -0.00529064611 -0.00565375667 0.012000001 0.00416962849
      0.000722089317 0.00106635923 0.00108213141 -0.00418535061
      0.00155508099 0.00523042865 0.00154560746 0.00557288481
      0.0177805144 -0.00744062569 -0.0267728474 0.00109700707
      -0.0193080697 -0.000859731052 -0.0054516159 0.00760409329
      0.0179338083 0.0266399179 0.00201166281 0.00213414757
      0.00145154621 -0.0135588823 -4.02510996e-05 0.0020614625
      0.0132797789 0.0258923639 0.0123196756 0.000256115076
      -0.000422165293 -0.000737819646 0.0069358293 0.00513855834
      -0.00305277808 -0.00513629941 0.0122455088 0.00563524989
      -0.000685071165 -0.00206206855 1.18636744e-05 0.0129266884
      -0.00186593761 -0.00294768438 -0.000665402913 0.0050927992
      0.0197026525 0.00328769907 0.00877359323 0.000992712681
      0.0247341413 -0.0068449364 0.0200639181 0.0117246443 0.0174174178
      -0.00125330768 -6.63877217e-05 -0.000510022684 -0.000466199272
      0.0203146506 -0.0030525201 0.00210663257 0.00127206964
      -0.00195993157 0.00239190855 0.0132464776 0.0274202116
      1.77737365e-05 0.0147869335 0.000148006497 7.75177687e-05
      -3.47991154e-05 0.00238182279 0.015815774 0.0255481154
      0.0291270856 2.61666064e-05 0.00781846978 7.72774001e-05
      -8.6037553e-06 -2.40892314e-05 0.0158552025 -0.00503996806
      0.0209300388 0.0267304443 0.000179718481 0.0391961001
      0.000246197334 -5.50699333e-05 -0.000184696517 -0.00489874743
      0.00123059982 -0.00607349072 0.00548002962 0.000268227013
      0.0352387391 8.88706491e-05 -1.78467508e-05 -0.000166859041
      0.00148841832 0.0186184663 0.00960424822 0.0184598714
      4.96835637e-05 0.000572805002 1.8806586e-05 1.49295838e-05
      4.53921202e-05 0.018782869 0.0202604998 -0.00365902646
      0.00792471971 -1.96131896e-05 -0.00246666092 -2.61360651e-06
      2.67296327e-05 0.000236934022 0.0203184076 0.0110401912
      5.26742479e-05 0.0114423372 0.00021188891 0.017417606
      0.000115362665 4.20531251e-06 4.08432388e-05 0.0112469932
      0.000689898559 -0.0200714134 -0.0153401 -2.45537067e-05
      0.0114294915 1.88419017e-05 -9.40750615e-05 -3.03220695e-05
      0.000792867504 0.0234750267 -0.0117044002 -0.00970986579
      -0.000125603488 -0.00693843048 3.92040092e-05 5.22199662e-05
      0.000175409281 0.0237191189 0.0320403203 -0.0142257921
      -0.0350675173 -0.000113889124 -0.00586262625 0.000166707279
      0.0026146851 0.000916058721 0.0317337811 0.0232852474
      -0.0142924301 -0.017301783 -0.000145346188 -0.00667531881
      -0.000143519923 -0.000120449076 -2.02592382e-05 0.0232293773
      0.00113455753 -0.0317347534 -0.0386192277 -0.000168567567
      -0.0179408472 -0.000179018301 0.00114383711 0.000357619516
      0.000787498895 0.0236551892 -0.00920229778 -0.0200507194
      -4.95434178e-05 -0.00785039365 3.64146908e-05 0.0127604492
      0.00423660781 0.0233000796 0.0112641081 -0.011564658 -0.0215810481
      -0.000394913339 -0.0302445292 -0.000551804376 0.00673880614
      0.00621187268 0.01121106 0.0118364235 -0.0176384393 -0.0223351661
      -0.000110939785 -0.0272206571 -0.000264728849 0.0239561964
      0.00858332217 0.0113940546 0.023354115 -0.00889744703
      -0.0182117298 -0.000406852458 -0.0286029931 -0.000611832365
      0.0220348202 0.0263363346 0.0234118793 0.0101119094 -0.00593864033
      -0.0150414482 -0.000462958735 -0.0390720218 -0.000662902137
      0.00837931316 0.00178332336 0.00994268246 0.0149448849
      1.87474379e-05 -0.000289835007 -9.14185584e-05 -0.0166355316
      -0.000308703107 0.0159922522 0.0176975373 0.0148268817
      0.0227386598 -0.00290602981 -0.00871110894 -0.000302694243
      -0.0218658838 -0.000527155178 0.0110196257 0.0161504298
      0.0234905053 0.000806536525 3.10440487e-06 -0.000128525659
      0.000576230581 -0.00371832307 -0.00035429842 0.0201193504
      0.0198952165 0.000523855677 -0.00249831565 -0.000866320217
      -0.00338339526 -0.00169508404 -0.0190616306 -0.00295488467
      0.0286404733 0.0137387132 -0.00368013256 -0.00290440279
      -0.000493967498 -0.00126361568 -0.000797229528 0.00257879822
      -0.00106700871 0.00901719276 0.00308073731 -0.00301058008
      -0.020925194 -0.00188088499 -0.00358145731 -0.000204913013
      -0.00159162283 -0.0057196063 0.0441192351 0.0437822863
      -0.0210700277 -0.0143585838 -0.00183397974 -0.00212096167
      -0.00040920169 0.0149551593 -0.00272379024 0.0180153009
      0.0140838921 -0.0141508831 -0.00719342148 0.0100925183 0.020938484
      0.000592315861 0.033363089 0.000326158653 0.00680020731
      0.00203360175 -0.00727769313 -0.0131943673 -0.00403593341
      0.00228766236 0.000480718416 0.0370450653 0.000421294098
      0.00183785649 0.000564473157 -0.0134329861 -0.0102518918
      -0.0120051792 -0.0211011134 0.000634248136 0.013694087
      0.000936913828 0.0254854299 0.0125107365 -0.0103919609
      -0.0340340175 -0.0233246926 -0.0224742983 0.000312118704
      0.0252606068 0.00076676131 0.0235315263 0.00876786374
      -0.0342697464 -0.00278997491 0.000182639429 -0.00137277436
      0.000214260654 0.0357502103 0.000434653048 0.00113417231
      0.000358395919 -0.0027928662 0.01141058 -0.00512845721
      -0.00231028744 -0.000168995437 0.0100144288 -3.58615762e-05
      0.00040604244 0.000148546344 0.0116711296 -0.0213749744
      -0.0071801357 -0.0114236362 0.000174747358 0.0306940824
      0.000508500962 0.0240434054 0.00983094145 -0.0214852989
      -0.0155670783 -0.0176835712 -0.0184672996 0.000213810898
      0.0082072271 -0.00073416857 0.0192108154 0.00793359429
      -0.015562987 0.0349370055 -0.00709397439 -0.0080184862
      3.70611065e-06 -0.00713855261 -6.29576898e-05 0.000140282384
      6.68795838e-05 0.0348408408 0.0193891264 -0.0233485326
      -0.0317099616 0.000225455267 -0.0205844678 -0.000189227401
      0.00146925671 0.000541456626 0.0193754714 -0.00125005597
      -0.00968216173 -0.0250911601 0.000234895808 -0.00943493098
      -0.00010994546 0.0158663802 0.0065418384 -0.00149121764
      -0.0185660385 -0.0139981275 -0.0321195088 0.000425771577
      -0.0339832939 1.25262986e-05 0.00170254114 0.000927435351
      -0.0185787939 0.007939809 -0.00972800143 -0.027243048
      0.000158421331 -0.0248095542 -0.000325896835 0.0139518287
      0.00474662893 0.00755548989 0.0233074632 -0.000963125203
      -0.0027427366 0.000376077049 -0.0058811144 -0.000260372268
      0.0229425542 0.0282137934 0.0231554061 -0.0149033526
      -0.00764763588 -0.0185211636 0.000349629408 -0.0316424444
      -0.00023841139 -0.00678233895 -0.00236327085 -0.0152218156
      -0.00823274255 0.0121406289 0.0145142889 0.00106212997
      -0.00585356774 0.000402583537 0.00359502155 0.00147627131
      -0.00917475484 -0.00031217272 0.000805847463 0.00235721772
      0.000407278625 -0.00378873479 9.94650181e-05 0.0281733647
      0.0154982172 -0.00014384267 -0.0144235361 0.000521300826
      0.00164200214 0.000577991537 0.00803970918 0.000331836229
      0.0209574401 0.0116106533 -0.014500129 -0.0174284056 0.0146845104
      0.0269950647 0.000694238697 0.00450963667 0.00091264426
      0.00408268161 0.00218579243 -0.0174950622 -0.0403434485
      0.00891883299 0.0258956309 0.00046933 0.0135107981 0.000969720946
      -0.00754301623 -0.00408742018 -0.0403156392 -0.0168175064
      0.000116819945 0.000503860356 0.000441510783 0.0304913372
      0.000324616034 0.0305057894 0.0127103236 -0.0169324242
      -0.00350782601 0.000455099071 0.00114215002 0.000206806231
      0.0258744583 0.000283180358 0.0152989477 0.00612449693
      -0.00352708832 -0.0395214483 0.00813089311 0.0244785994
      0.000145554324 0.00768454187 0.000668395078 -0.0164373219
      -0.0167260934 -0.03956398 -0.015469946 0.00541591877 0.0128566381
      0.000265162118 0.00115512824 0.000285531132 -0.0186482761
      -0.0114548141 -0.0155482907 -0.00294890464 -0.00745744957
      -0.021713838 0.000348552509 0.00396807911 0.000467479782
      0.0137079554 0.00579516822 -0.0029963844 -0.0177144911
      -0.0129525773 -0.0150900343 9.77983727e-05 0.0227034129
      0.000526773569 0.00919106789 0.00681040809 -0.0177046694
      -0.0085062338 -0.00195612619 -0.00577452313 0.00038156574
      0.0153394556 0.000169511753 0.00189627788 0.00270743528
      -0.00857061893 -0.0162348673 -0.0063537769 -0.0185738914
      0.000257583713 0.0268111601 0.000260927744 0.00390554755
      0.00640801806 -0.0159948692 -0.0158906821 -0.00714785373
      -0.0208957102 0.000112661946 0.0273968428 0.000351822266
      0.0293929763 0.0118516348 -0.0156744514 -0.00932954624
      -0.00363604701 -0.0109992828 0.000162735596 0.0129765859
      -7.5582444e-05 0.0218384769 0.017801784 -0.00897158869
      -0.0147529915 -0.0052405051 -0.0120166922 0.000173328648
      0.0158404373 0.000144921782 0.0198700335 0.0163976569
      -0.0147475917 -0.00749513973 -0.00158571801 -0.00526085449
      4.2328742e-05 0.00204560277 2.18407858e-05 0.0352377221
      0.0176052563 -0.00749513973 0.000871781958 -0.000856295403
      -0.00253761024 6.5009619e-05 -0.00419549597 -9.38546727e-05
      0.0178245902 0.0061369976 0.000852936239 -0.0120842233
      -0.00206747348 -0.00585998921 9.19506274e-05 -0.0181792397
      8.03949515e-05 -0.001053293 -0.000315093261 -0.0124091273
      0.00541057345 2.24807336e-05 -5.40056726e-06 4.24280261e-05
      -0.00207943469 2.34167819e-05 0.0124588124 0.00431078346
      0.00541057345 0.00541057345 0.000209958293 0.000794923748
      -0.000372360228 -0.0186235234 0.000145146289 -0.0162671916
      -0.00582921738 0.00541057345 -0.00552792056 0.00136420142
      0.00468738377 5.8945061e-05 -0.0146546653 -1.1325732e-05
      -0.00380939594 -0.00146489195 -0.00581211364 -0.00209467113
      0.0171568319 0.0259571914 0.00017099308 -0.00151862158
      -4.58470313e-05 -0.0042117564 -0.00150664314 -0.00234230794
      0.00802812167 0.00629656157 0.0190922674 -0.00116417801
      -0.0295671802 -4.77753347e-05 -0.0238578469 -0.0084666172
      0.00787081756 0.00781206973 0.0204029195 0.019407494
      -0.000173930952 -0.032720346 -0.00112432544 -0.0173399057
      -0.0062071518 0.00745373731 -0.00857963879 0.0168082956
      0.0337850265 0.000203948759 0.0184645671 0.000447205355
      -0.00497804722 -0.00165471737 -0.00830695033 -0.0335882083
      0.00955478754 0.0174988639 0.00026847556 0.0167897083
      0.000369605201 -0.0174386427 -0.0060138707 -0.0338119082
      -0.00361738587 0.0126100956 0.0185212642 8.00213311e-05
      -0.0129602319 -0.000293274963 -0.00458016153 -0.00147374091
      -0.00407841243 -0.0215569306 0.0119082537 0.00165100745
      0.000148457926 0.00277764979 0.000117530362 -0.00135964563
      -0.000356030359 -0.0216133706 -0.0234667175 0.0137884989
      0.0233608149 0.000162686469 0.0132475775 0.000181039475
      -0.0203369763 -0.00851186179 -0.023567168 -0.00285827648
      0.00360969268 0.0105715031 8.34538514e-05 -0.00239540357
      -4.74353365e-05 -0.0134823713 -0.00463097496 -0.00287458231
      -0.0321175829 0.0103377858 0.00662883976 2.8069875e-05
      0.0144470697 0.000296161365 -0.0027768428 -0.000914163364
      -0.0317947567 -0.00509430887 -0.000583982503 -0.00183241291
      3.05247559e-05 -0.00307482551 0.000140592092 -0.000861011154
      -0.000358447665 -0.00502415607 -0.0140618831 -3.40017978e-05
      -0.000260146946 0.000207409394 0.0231223777 -9.15156197e-05
      -0.00820015278 -0.00219951547 -0.0142165823 -0.0124108894
      -0.00320779928 -0.0102442829 0.000197172209 0.0229255669
      -0.000220689137 -0.00437482167 0.00751597993 -0.0124067664
      0.00417124433 0.000212428626 -0.000291190343 -0.000101595273
      0.00291687343 -0.000352405244 0.00604235241 0.00182290771
      0.00386305479 0.0185293034 0.000120130535 -0.000276262843
      -0.000239201749 7.50593681e-05 -0.000272592326 0.0369679183
      0.0150485253 0.0187830981 -0.0236161444 -0.00673893979
      -0.0116632208 3.58171965e-05 0.000765675621 -0.000207843987
      0.0226194169 0.0145658581 -0.0235501695 -0.0218184236
      -0.00276378496 -0.00786743965 2.80965814e-05 -0.000941634877
      -0.000159069546 0.0319751017 0.0140667045 -0.0214986 0.018443903
      -0.000121986021 -0.000247182179 -0.000230647303 -0.00132966344
      -0.000170937434 0.0317332186 0.0137374625 0.0186217353
      0.0253617335 -0.000270300865 -0.000484787801 4.58694922e-05
      -0.0014222411 -0.000213528823 0.0336198285 0.0181333181
      0.0249706283 -0.00831810664 -7.76366214e-05 -4.14176138e-05
      -2.7138025e-05 -0.00748214824 -1.00136058e-05 0.00714084459
      0.0023837625 -0.00846288167 0.00317927171 0.000566926901
      0.00189932296 -0.000752232387 -0.0256750658 -0.000393573107
      -0.0181265473 -0.00633612042 0.003461899 0.0357440859
      -0.000116095202 -6.26561232e-05 0.000276604289 -0.007233351
      -7.4189149e-05 0.0128705893 0.00413228478 0.0357646868
      0.0326844826 0.000517968496 0.00184919685 -0.000109520792
      -0.0256083086 -0.000574988429 -0.0214513615 -0.012782447
      0.0328637846 0.0135686146 0.00450464524 0.0136562558
      -0.000385981344 -0.0314635709 -0.000174440152 -0.0200033672
      -0.00672487542 0.0139089106 0.0124464212 0.0156442504 0.0245881788
      -8.12522921e-05 -0.0375043862 -0.000251447782 -0.0190735981
      -0.0116910785 0.0126328506 0.0274798051 0.00298439758
      0.00907280669 -0.000152342996 -0.0233507641 -0.000190153718
      -0.019252643 -0.0118343364 0.0275727771 0.0100400122 0.00512971776
      0.0148350876 -0.000150409222 -0.0278789829 -0.000133022346
      -0.0243423823 -0.00815725513 0.0111400504 0.0057298746
      0.0201943889 0.0100452583 -0.000200948693 -0.0310339574
      -0.000457863731 -0.0073866453 -0.0024337275 0.00592042645
      -0.010671963 0.0169596486 0.00974356104 -0.000198924827
      -0.0102138827 -0.000141220153 0.000183392229 0.000132671164
      -0.010727603 0.0097169606 0.00360710523 0.0144327162
      -0.000170630607 -0.0235657133 -0.000315508776 -0.00376622449
      -0.00119799864 0.0112166489 -0.00152692071 0.00324497721
      0.00943742786 9.40947648e-05 -0.019009117 -0.000160576819
      8.1142105e-05 0.000205255637 -0.00170243531 -0.0286220014
      0.0196268428 0.00816309731 -0.00107613299 0.0199917424
      0.00138668029 0.00249802787 -0.000181936935 -0.0283732433
      -0.0171824712 -0.00183353643 -0.0059809247 -9.35539865e-05
      -0.0073525859 0.000907493581 0.00144591893 -0.000539504166
      -0.0168373194 0.00224637636 0.00321288942 0.0130796321
      -2.50853027e-05 -0.00388567941 0.000101981568 8.04152369e-05
      -0.000171191932 0.00165796198 -0.0012522809 8.89222865e-05
      0.000716299342 6.01079591e-05 0.00435244292 0.000110747926
      0.000138014861 -6.69265646e-05 -0.000914197881 0.0157115497
      0.00489039486 0.0087768808 0.00418414036 0.0087841088
      0.00665429281 -0.00198778347 -0.00547194155 0.0115211392
      0.0382761434 0.00271088607 0.00516026048 0.0121649541
      -0.00585825369 0.00966950879 0.00331613747 0.00263287686
      0.0407049768 0.00517203845 -0.00096131966 2.22531617e-05
      0.000596735277 0.00375382625 0.00465725316 -0.000591649674
      -0.00258116703 0.00416601636 0.00686957501 -0.00146698649
      -0.00192617218 0.00181306456 -0.00205336791 0.0036659441
      -0.000414573762 -0.000313283497 0.0029142038 0.020406466
      -0.00529867271 -0.00585007761 -0.00452214945 -0.0195545703
      -0.000302934408 0.0277061854 0.00988661218 0.0209882464
      0.0357939564 -0.00381128234 -0.0109111816 0.000249789417
      -0.0131404437 -0.000922284089 0.0506554395 0.0195960924
      0.0331525616 -0.00818835571 -0.00184710592 -0.00159153354
      -0.000442644465 -0.00634326693 0.000166161321 -0.000243106697
      -6.34280441e-05 -0.00752137648 -0.0079842424 -0.00110934279
      -0.00323312473 0.000117597148 -0.00840120576 3.54582116e-05
      -0.00128585671 -0.00193086069 -0.00794506259 0.0557897687
      -0.000403811748 -0.000679821125 0.00169170485 -0.00569718983
      -8.15458188e-05 0.0105498219 0.00238550827 0.0558732823
      0.0464048274 -0.000298371015 -0.00045572847 0.000312250049
      -0.0241969526 -0.000552643905 -0.0298693459 -0.0278813783
      0.0469626784 0.00144569599 -8.46884141e-05 -0.000255475636
      0.000201317467 0.000132951842 0. -1.41525779e-05 -0.000467647857
      0.00145683507 -0.00297142821 -0.000155115733 -0.000650846632
      -0.000229777506 -0.000676882453 0. -0.00646239938 -0.00245815259
      -0.0029736096 0.0242807865 0.00246281852 0.0141147608
      -9.95658484e-05 -0.00673039444 -6.93931725e-05 -0.0183642358
      -0.0132792676 0.0242851079 -0.00668250583 -0.00072948169
      0.0264921878 -9.4124749e-05 -0.00497988239 -1.77712554e-05
      -0.0132148815 -0.00495001348 -0.00650801277 -0.00575065427
      -0.000630571449 -0.00188213645 -2.46037398e-05 0.00021656639 0.
      -0.00302062975 -0.00101550412 -0.00575121492 -0.0055423961
      -0.0014586288 -0.00429087551 1.65384117e-05 0.000953658076
      1.32706089e-06 -0.00129819917 -0.000434918329 -0.00559379719
      0.00820960104 0.00226814928 0.0144020757 -0.000167335311
      0.00221649534 8.89862131e-05 4.71756284e-05 0.00605554087
      0.00828533247 -0.00280075893 0.00319274445 0.00157854683
      0.00259137247 0.0174675416 0.000299742183 0.000227998054
      0.00815296452 0.000559777312 0.00143496564 -0.00241435296
      -0.0069164373 7.47745289e-05 0.00673219841 1.56594542e-05
      5.62968962e-05 0.0027194873 0.0043976903 0.00840190612
      8.9599871e-06 -0.00011446081 0.000282264256 0.0103372168
      9.39567326e-06 1.40086904e-05 0.00398570998 0.0128264539
      -0.0195840355 -0.00105480151 -0.00184972212 0.00940925628
      0.0258468185 0.000279951841 -0.00234265137 -0.0073308493
      -0.0160727371 0.00548068201 0.0014260381 0.00105119299
      0.00154315296 0.0183475185 0. -0.000432743167 -0.000646646775
      0.0100511219 0.0169661306 0.00101682928 -0.000964298844
      0.00116097904 0.0216879696 0. -0.000364257983 -0.00512936665
      0.0181765724 0.00315738632 0.00101657666 0.000564150629
      0.000130006825 0.00969002116 0. -6.18204504e-05 -0.000905737223
      0.00500528514</_>
    <_>
      -0.000675608462 0.000731748762 -0.000681015081 0.00240598549
      0.00163461373 -0.000437806739 -0.000508957659 0.000477872702
      2.13542626e-05 -0.000160549389 0.00229051081 0.00443673274
      0.00135204464 0.00131271943 0.000180392861 4.09559907e-05
      0.00184711884 0.00163978687 -0.0331077687 -0.00481922226
      -0.00252953148 0.00253058062 0.00324069615 9.87182921e-06
      -0.00118678925 0.000267967116 -0.0341345593 0.000739826879
      0.024532022 0.00853433087 0.00116796128 0.00104350911
      -0.000258191314 9.96039034e-06 0.000274686114 0.000386183732
      -0.00104019779 0.00340681057 0.0105281286 -0.000216987857
      -0.000491536455 6.9130816e-05 0.000305942813 0.000211287188
      -0.000655914831 0.0102031995 0.00381316687 0.012175574
      -0.000544133945 0.000221569862 0.000105182422 0.000681947975
      4.11274777e-05 0.0108422721 -0.0104285497 0.0205167718
      0.0175339337 -0.000622868247 -0.00056995434 3.98874072e-05
      0.000280609587 -5.07869845e-05 -0.0104491021 -0.00543164555
      0.00118251634 -0.00319187995 -0.000915742537 0.000258278393
      0.000239767134 -0.00484975986 -0.00188301154 -0.00543164555
      0.013052607 -0.0019391008 -0.00433801487 -0.000349240116
      0.000278050924 8.61750232e-05 -0.00342526706 -0.00123810698
      0.0134692173 0.0217775963 -0.00128102687 -0.00323040504
      -0.000192063701 -0.000592389319 -5.80725937e-05 -0.0170287993
      -0.00671772566 0.0222392827 0.0111501087 -0.0170569792
      -0.0221191719 -0.000608023722 -0.00889958348 0.000219599766
      -0.0300723333 -0.0148671884 0.0112469885 0.0192251056
      -0.00691021513 -0.0198209621 -0.00081264897 -0.0393495373
      -0.000470825733 -0.0413315631 -0.0290153902 0.0194165576
      0.0291410629 -0.000316175894 -0.000413232163 -0.00013354879
      -0.00354081369 -0.000584935362 -0.0154941836 -0.00563662965
      0.0286540091 0.021544978 -0.00390772382 -0.0109480359
      -0.000429603184 -0.00191010314 -0.0014442812 0.0183050949
      0.00565609243 0.0194319692 0.0403809659 -0.00330593949
      -0.010294239 -0.00134074257 -0.0540857315 -0.00148093165
      -0.0138325505 -0.0111821182 0.0389599986 0.0131341526
      -0.0429720171 -0.0556537434 -0.00147942279 -0.0540484451
      -0.00220928178 0.0200388934 0.0190102849 0.0132885491
      0.00493943086 -0.00230373 -0.00879122876 0.00141007139
      0.00277859555 -7.69861581e-05 0.0226927772 0.00762525061
      0.00409852294 -0.0129332393 -0.000390699541 -0.00229679653
      0.000802914961 0.000881621905 0.00157798629 0.00149008608
      -8.30479039e-05 -0.0120806359 0.00970124919 -0.0245885178
      -0.0449694581 0.0011815232 -0.0260827597 -0.000162443757
      0.0183845479 0.0288609229 0.0101060886 0.00141178758
      -0.00381718832 -0.0150256613 0.00145391654 -0.0234385412
      0.00040547087 -0.00429638056 -0.00263046543 0.000943206542
      0.000208100915 0.000892093871 0.0057068821 -0.00108904904
      0.00661016954 0.0074838982 -0.00553011335 -0.00740041537
      0.00361132505 0.00362494937 -0.000134854199 0.00100070215
      -0.000148581981 0.013887777 -0.000616389036 -0.00188954291
      -0.00224004802 0.00393259246 0.0179908909 0.00531344069
      0.0146814259 -1.65705205e-05 -0.0183415599 0.00528670521
      -0.0124804396 -0.0198326986 0.0172990505 -0.000733006746
      0.000905782566 0.00247540511 -0.000240204085 0.00806361903
      0.000688278815 -0.00542277377 -0.00496637262 -0.00105295016
      -0.0218051225 -0.00551517354 -0.00695700711 -0.000144443839
      -0.00042427564 0.000163643388 -0.000112005153 -5.08835728e-05
      -0.0222188067 -0.0224180426 0.0157591775 0.00568478974
      -2.04348307e-05 0.0105818808 0.000194740249 -5.52761594e-05
      -5.25798059e-05 -0.0227274075 -0.0149968127 0.0145618413
      0.00934081618 -0.00064872799 0.00359043013 -0.000117333708
      2.5181047e-05 2.95457885e-05 -0.0155277383 -0.0183910001
      0.0196800698 0.0172241218 -0.000111785979 0.0119028343
      0.000465889374 -4.0666705e-06 -3.82161379e-05 -0.0180418324
      -0.0169531386 0.00877572224 0.0170088764 -6.90090601e-05
      0.000542252266 -8.29864002e-05 -1.40126622e-05 -1.20058176e-05
      -0.0169344824 -0.00415981654 0.00129876425 0.00341965607
      -0.000211476916 -0.00285672559 4.04750244e-05 -0.00211086147
      -0.000508250087 -0.00419437373 -0.0171950459 0.0157195255
      0.0243482776 -0.000201407893 -0.00598161481 -0.000135565861
      -1.29704258e-05 1.34409606e-06 -0.0168813262 0.005080726
      0.0285513327 0.024860993 -0.000477241789 -0.0220021624
      -0.000240144393 -0.000374479685 -9.13093681e-05 0.00475901412
      0.0186614096 -0.00851359311 -0.0165652987 -0.000269514887
      -0.0208882913 3.32061754e-05 -0.0172848981 -0.0056487876
      0.0188537724 0.0419236943 -0.0161734913 -0.0435383357
      -0.000817840744 -0.0489170104 -0.000537063752 -0.0328844152
      -0.0124027301 0.0420818813 0.0457926169 -0.00603640079
      0.00271624653 -0.00051069021 -0.0426337048 -0.000562565576
      -0.00227770722 -0.000748155988 0.0458007045 0.049445264
      -0.0352192745 -0.0460434221 -0.00137071044 -0.0489888377
      -0.00102702843 -0.00180593971 -0.000645958062 0.0495646633
      0.04128059 -0.00746372901 -0.0235273559 -0.000990097295
      -0.0490799956 -0.000428040919 0.000195862449 -1.72325235e-05
      0.0407023914 0.0254565626 -0.0149007756 -0.0460495576
      -0.00121654884 -0.0501401164 -0.000716030365 -0.0120902434
      -0.00496764528 0.0245932452 0.0441640504 -0.0115397135
      -0.0257828478 -0.00123075687 -0.0396056026 -0.000296603801
      0.0301103983 0.0101363529 0.04430639 0.0429521501 -0.00260714884
      -0.00784503762 -0.000981484423 -0.0375668742 -0.00021648698
      -0.00584349222 0.00710869487 0.0428923704 0.0154492538
      -0.0090609258 -0.0248637963 -0.000160145049 -0.0422093496
      -0.000319856626 0.00207723514 0.00026312354 0.0153904585
      0.00955094211 -0.00177105353 -0.00558933662 -2.42645656e-05
      -0.019439429 -0.000151550004 -0.00378367375 0.0128268432
      0.00924629625 0.0305195823 -0.000766513171 -0.0022965516
      -2.40420977e-05 -0.00989115331 -0.000352701347 -0.000553547754
      0.00105720409 0.0318771787 0.00602239789 -8.95283756e-06
      -0.000473392371 0.000305968628 -0.000553547754 -0.000715795264
      -0.000553547754 0.0018883578 0.00574363116 0.0010864127
      0.000223044743 0.000476966525 0.000185924044 -0.0154054649
      -0.000157423055 -0.00820095558 0.00411422597 0.000942599901
      -0.00014662469 3.0384912e-05 7.67180318e-05 -4.07465704e-05
      -0.00745882979 -4.83346739e-05 -0.00479109585 -0.00180253037
      -0.000131307839 0.000452739449 0.000242000649 0.000523522438
      0.00139332656 0.00248267991 -0.00132466247 0.00353268557
      0.0122086033 0.000299307518 7.7980585e-06 5.69504009e-05
      7.82020197e-06 -0.000345909968 -0.000669177505 -0.000278061983
      0.00697162095 0.00898962189 5.28135897e-05 -0.00128118566
      0.0189103559 0.0431222916 -4.91040082e-05 -0.0173480622
      -0.00051199249 0.00966993906 0.00288093463 -0.0016172654
      -0.0168301649 0.010673468 0.0135218035 -0.000209555059
      -0.0173480622 -8.19492998e-05 0.00228250097 0.000723803416
      -0.0174295399 4.45570586e-05 0.00728142867 0.0221890807
      0.000444865931 -0.0173480622 -0.00020438504 0.0401357785
      0.0176317245 -9.16647914e-05 -0.00288327062 0.00615743594
      0.0176442116 -0.000525702839 -0.0173480622 -0.000754084787
      0.028551247 0.0103054317 -0.00308797718 -0.00812868495 0.021220617
      0.0244193953 -0.000350372342 -0.00846017618 0.000311359559
      -0.00139774219 -0.000375018397 -0.0075990241 0.0200025905
      0.0161941871 0.0355439298 -0.000654948235 -0.0272262041
      -0.000252582453 -0.00404012436 -0.00141036476 0.0200552288
      0.000349486072 0.00723026181 0.020503398 -0.000339828868
      -0.00846017618 -0.000243762144 -0.00448389305 0.000537383603
      0.000431897468 0.0129531035 8.8867826e-05 0.00105403003
      -0.000568395364 -0.0262399465 -0.000452198146 -0.0299885292
      -0.0140913222 0.0129740806 0.0539438538 0.00851554424
      0.00515570492 -0.000640316401 -0.0447229296 -0.00016184889
      -0.00233050971 -0.000628905895 0.0539565533 0.0541492291
      -0.011499553 -0.0339735672 -0.00050823635 -0.0533277877
      -0.000244677387 -0.0098134689 -0.00286404672 0.0541624241
      0.0253332853 -0.000562954519 -0.002486757 -0.000581928587
      -0.0401392318 0.000842561945 -0.0180157144 -0.00454153493
      0.0257494785 0.0217438936 0.000119521515 -0.00222658669
      2.33907631e-05 -0.0543589331 0.000724417099 -0.0311491322
      -0.0196335185 0.0218036119 0.0379146449 -0.00573170558
      -0.016538661 -0.000821121328 -0.0248733722 -0.000580698485
      0.0142502412 0.00477097463 0.0380711779 0.04171874 -0.00198366446
      -0.00453294767 -6.88089349e-05 -0.015452072 -0.000911717361
      -0.00272452948 0.0160996765 0.0419590771 -0.00148530642
      0.000914138451 0.00409545843 -0.00124502974 -0.0231063459
      -0.000699819298 -0.0176162161 -0.0131131513 -0.000623202068
      0.007444622 -0.00776687171 -0.0240617208 -0.000644201995
      -0.00972546916 -0.0013060153 0.0136629837 0.00422282005
      0.00760085369 0.0110687613 -0.0022966899 -0.00691445079
      0.000178594724 -0.00623726984 -0.000386526051 0.0114724347
      0.0122212665 0.0115522342 0.0009585066 -0.00155194325
      -0.00494181132 -0.000204011551 -0.00384137523 -0.000798433379
      -0.00524023362 0.00277621974 0.000890046591 0.00360629568
      -0.000339505816 0.00233178982 -3.73402836e-05 -0.00384137523
      4.98091576e-05 0.0241195876 0.00867939554 0.00345947896
      0.000345173816 -0.00520604197 -0.0134706711 -0.00105846534
      -0.00384137523 -0.000334952347 0.0186003335 0.0067684832
      0.000385051506 8.35282117e-05 -0.000349162059 -0.00110386673
      0.000189996674 -0.00839645974 -0.000354579417 0.010258005
      0.00404607365 5.58457177e-05 1.10419514e-05 0.000176545655
      0.00046316284 -0.000113099697 -0.0107421177 5.20299254e-05
      0.0221588556 0.00811066851 3.13041346e-05 3.80887686e-05
      -0.00353131653 -0.0028422107 -0.000404737308 -0.00655008759
      -0.000125883162 0.0121371932 0.00514775189 5.49896395e-05
      3.53456926e-05 0.00305523234 0.00702841626 5.19707064e-05
      -0.00831109378 4.80724993e-05 0.00973835401 0.00310923648
      3.88610242e-05 -0.00107880274 6.01092779e-06 5.56642262e-05
      -0.000139473603 -0.0107669467 -0.000149362488 0.0388019234
      0.0175698716 -0.00097477989 0.00102334796 -0.00223844685
      -0.00706755044 -0.000320321386 -0.0123389931 -0.000491521088
      0.0357117578 0.0165614821 0.00118845771 -0.0185357593
      -0.00470721722 -0.0139161544 -0.00024469645 -0.00900910795
      -0.000152993554 0.0110724382 0.0100193908 -0.0181878991
      0.00198794832 -0.020556476 -0.0382963344 -0.000251629652
      -0.00815997366 -0.000103299877 0.0324718095 0.0351904817
      0.00237296172 0.0128048286 -0.00134053372 -0.00446887221
      -0.000107114538 -0.0104996189 -0.000229359226 0.0117848404
      0.0056427503 0.0126996106 0.0289761964 -0.000209959922
      -0.000653549971 -0.000629618065 -0.0278177895 -0.00030885858
      -0.019134663 -0.00860138424 0.0289403163 0.0317836888
      -0.00862276368 -0.0231342353 -8.26116229e-05 -0.0350847468
      -0.000276389124 0.0315305106 0.0221884474 0.0318605155
      0.0420408733 -0.000675552117 -0.00257184356 -0.000648231071
      -0.0491040833 -0.000666760665 -0.00794114359 -0.0139840273
      0.0422439091 0.030306343 -0.000188231032 -0.000111049594
      -0.000579637184 -0.0427315384 -0.00022669282 -0.017321242
      -0.00906745624 0.0303049162 0.018651586 -0.000102853141
      0.00030835715 -0.00112357561 -0.038633164 6.17527476e-05
      -0.0392187238 -0.0166588165 0.0200456884 0.0401714593
      3.50323207e-05 7.60473858e-06 -0.000326180481 -0.0438858643
      -0.000424774771 -0.0187650248 -0.0281630047 0.0400204659
      0.0157888122 0.000796683889 0.00292138848 -0.000235738524
      -0.0182035007 0.000207335281 -0.0412284397 -0.0305336341
      0.0165909026 0.00624107942 0.00370408804 0.0115871299
      -0.000387813692 -0.0138036394 6.01195861e-05 -0.0214683581
      -0.0112176472 0.0061017382 0.0076189125 0.00623746123
      0.00225593499 -1.86655325e-05 -0.00577682862 0.00012170431
      -0.00894644856 -0.00296462723 0.00757947145 0.00331185921
      0.00271423929 0.00529031781 -9.68675013e-05 -0.00213372032
      0.000159978023 -0.0393246114 -0.0159659833 0.00397593016
      0.00193485967 -0.00106106594 0.00422786362 -3.32152813e-05
      -0.00563431345 8.72527598e-05 -0.0073004053 -0.00249187858
      0.00193485967 0.00386274396 0.000962464372 0.000465082005
      -0.000131193287 -0.000392803631 -3.1336047e-05 0.0010917926
      0.000377674383 0.00376915303 0.00101386709 -0.00462007057
      -0.0021881084 -0.000406446517 0.000836775114 -0.000286128343
      0.00168549898 0.000489882834 0.00113166601 0.001243448
      -0.00302978861 0.00151330314 -2.48467113e-05 -0.00923800934
      -0.000135665367 2.98942487e-05 2.28175959e-05 0.0018852842
      0.00488115707 0.00206035306 0.000465082005 2.88173942e-06
      -0.00169224164 -0.000308811024 1.01562291e-05 -3.0521694e-06
      0.00511848973 -0.000102925958 -0.00914762821 -0.000998164993
      -0.000444291596 -0.000998164993 -0.000267080555 0.00384978508
      0.00117471186 -7.18594456e-05 -2.421313e-05 0.00362301199
      0.00759464316 -8.6146887e-05 -0.00244374527 -5.6670222e-05
      0.000659408863 0.00019873881 -3.55242482e-05 0.000640422048
      0.00142361573 -0.000998164993 3.61652637e-05 -0.00173067593
      -0.000126339874 -7.88925463e-05 -9.62270205e-05 0.000546114519
      -1.15961266e-05 0.00268881558 0.00677487487 -4.30950131e-05
      0.0079952376 3.16480691e-05 -7.10365712e-05 -1.30009685e-05
      -3.11336407e-05 -0.031770099 -0.00930335931 -0.025574334
      -0.000300380518 0.00164649496 -3.43353531e-05 0.00382648944
      -0.00516098365 -0.0315313376 0.01062016 -0.0293249991
      -0.0482942015 -0.000491422601 7.76336965e-05 -0.000267945434
      0.0289949048 0.042706728 0.0105707366 -0.0148109766 -0.00171197194
      -0.00639809715 -0.000375133764 0.000690863526 3.36322701e-05
      -0.00690283393 -0.00251893466 -0.0150243435 0.0171098895
      -0.00520399213 -0.016450556 -2.75693492e-05 -0.00140142068
      5.39537141e-05 0.0447386913 0.0159748401 0.0151506001 0.0241661351
      -0.0221745502 -0.0370184332 -0.00149731233 -0.0517950244
      -0.00128853892 0.0371936075 0.0219636634 0.0238638911 0.0177438688
      -0.00230962527 -0.00529887015 -0.00160616462 -0.0622060895
      -0.00271319295 -0.0203461498 -0.0403865054 0.0209494866
      0.025228139 -0.00377175957 -0.0106480839 -0.000909384282
      -0.00448378874 -0.00143044372 0.0401857533 0.0154911298
      0.0241674688 0.0257570893 -0.00205686362 -0.000926456647
      -0.000624368549 -0.00195441395 -0.00218727556 0.0177414045
      0.0156652927 0.0279146917 0.0177350882 -7.833571e-05
      -7.32135595e-05 -0.000116917741 -0.012940255 -0.000161703734
      -0.0328185149 -0.0263939537 0.0187385622 0.00597754307
      0.000551015895 0.00197697361 6.28650355e-07 -0.00192706776
      0.000133140289 -0.0454684459 -0.04428773 0.00597754307
      0.0392168239 -0.000368009292 -0.000301283813 0.000219940717
      -1.44209105e-06 -7.09075466e-05 -0.00461952901 -0.00143733772
      0.0402156971 0.00603950163 0.000219047695 0.0021330493
      -1.24359713e-05 -1.51755075e-05 -4.12041954e-05 -0.0459208414
      -0.0265269056 0.00676922547 0.00588165736 0.000679937773
      0.00240505068 1.26678715e-05 6.41190927e-05 5.46805022e-05
      -0.0404855646 -0.0154282218 0.0060241851 0.00306106219
      -0.00255636056 0.00390970055 1.53038e-05 -0.000266097952
      4.81891984e-05 -0.00714954734 -0.00243512308 0.00308741373
      0.00390970055 0.00130566536 0.0051440536 -0.000152483786
      -0.000181718788 -4.65958074e-05 -0.0341542736 -0.0152615672
      0.00390970055 0.00177762576 0.00222357479 0.00390970055
      -4.19433636e-05 -0.000347573776 5.60127091e-06 -0.0106171817
      -0.00365657103 0.00261977548 -0.00238267658 -0.00477456534
      -0.00146806426 -1.75457881e-05 -0.00407282589 -1.49988355e-05
      -4.42548735e-05 3.7241241e-06 -0.00227596844 0.00521571143
      0.00195598416 -0.00146806426 -1.16878246e-05 -0.00729458081
      -8.1935359e-05 -4.09060376e-05 8.2786959e-05 0.00569009595
      0.00264528231 0.00138803083 -0.00146806426 1.89208754e-06
      -0.000515505672 1.98261423e-05 2.33673545e-05 -9.24816341e-05
      0.00246254401 0.00293296552 0.00176570215 0.0059738704
      -2.65149938e-05 -0.000633934047 2.84799426e-05 0.000112656955
      0.000166100013 0.00338057638 0.00641418109 -0.00188015262
      -0.00188015262 0.000154633526 -0.00517107453 -0.00102696486
      -0.00149868196 -0.000142059798 0.00636614999 -0.000251456455
      0.00269481004 0.0078647919 2.87581697e-05 0.00520474231
      -0.000508310273 -0.00112048013 -4.65580015e-05 -0.000347645837
      0.00155905611 0.000933265081 0.00399313401 2.261585e-05
      -0.00754911266 -5.12955921e-05 0.000290045311 0.000917712168
      0.00291086617 -0.000833831669 0.000155026471 0.000322288019
      8.91912205e-05 -0.00505655073 -7.25490463e-05 -0.000115921153
      9.29786183e-05 -0.00071617472 -0.0114080701 0.0052036643
      -0.00538024586 -0.00646487949 0.00471847178 0.00316836941
      -0.00572292786 -0.00343212462 -0.0139966812 0.00961764064
